var goodGenes='[{"fitness":289,"brain":{"input_num":13,"hidden_num":18,"output_num":4,"hiddenLayers_num":1,"AdditionalHiddenLayers":[],"weightsToHidden":{"rows":18,"cols":13,"matrix":[[-0.011869289680310981,-0.000125668472600001,9.05065572016327,0.19932121609847425,-0.554472543903876,-1.0407560007739316,12.485828664795081,0.0000175739932522666,4.226383106881173,0.0003297877221609359,-0.000057897663346680284,0.08037611527901403,0.05371754204839026],[1.3776719646027347,0.0009469375327064465,-7.095331828767209,0.12293227850408497,0.00009683659792083889,-0.8163299792221823,11.783388423824768,-0.000006080867234694018,0.0003384895268846641,0.1086136601630687,1.064774575859149,0.00014306253831991055,0.7362648856803007],[-0.5582737366333864,-0.6054352467184967,-0.003209423403034549,-0.000034227033369795855,-0.000010177317896247338,70.33865671715506,10.58775158704215,0.04188989503791417,0.00008867074438161374,-1.644367078926087,0.00006149434958835232,-0.015509396461773031,1.616669639688753],[-3.3479096640689425,0.00013021763240934436,-0.050919367934127886,-59.92905429560862,0.002564563038592433,0.1067489177827094,0.023394634658676233,0.000001239500453339912,-1.9194824275987372,0.04018111021656046,0.001894233356970836,-4.213561976933316,0.0000013089546343371452],[0.08366684277730678,-0.0035004922363655604,-0.0956987810049396,-0.42786015479764894,-0.007598150132770367,0.6500030986527192,0.00016262232077873494,0.0006726288961466884,-7.907319925434367e-12,-0.012252061900274811,0.02787182250310754,-52.65591559678444,0.012660718554527873],[-9.976473991074709,-0.06800478140153665,0.0004669130458197563,-0.01318118173053213,0.11567685677377061,0.002287816358751733,-0.033221824085301714,13.388382189057054,0.000038028857291558166,-4.987183638776892e-7,2.5142651540437226,0.07093150629715557,-0.392846417248525],[-28.350572066874044,-0.000001976210790553614,0.000016797858512614798,-7.028836863660426,-0.11571447672398914,-0.000037695910657542136,-0.01316933697966794,0.04884744998574819,-0.000015980556957357437,-1.3103445630798607,-0.0000021748500176238846,1.0980499216077049,0.00022492969678113885],[-0.2082025357825242,-0.16770851500652156,-5.395634287006904,0.0062972571135680635,0.023871962181985333,0.002343379958420291,0.1582887133910545,0.018225104125655804,-0.02730555923204747,0.2571722844566501,-4.8463803331150554,-1.8401480015711267,0.21827977896592782],[0.26312212643668964,0.0674056319724989,7.15007302634428,0.000003932006911197681,-0.0019021615581030812,-0.0005580159575044913,0.023737583539003546,4.91769220017831,277.6703897883372,0.014055879586001631,2.55779284565311,0.002748214626609756,-0.009587247492081745],[-0.0003394345988348696,0.0013496414796034825,0.0006806706842832319,-0.00004851130073093485,0.0002890320255811631,0.02353476559074423,0.0033909947665272124,0.00019024383320774053,-4.0368910573152467e-7,-17.487244188327427,0.1310207317803128,-0.0001415167616159511,0.20480598093615449],[-45.87900766700175,-0.000029355204120153566,1.4929997995415623,-0.015833963047646796,-0.000039174130586011684,-0.013245679096572918,-0.6885226387898412,-0.010245136389648501,-0.0006858624164174124,0.0000010754136111259731,-0.04637269350379545,0.019847033104971414,0.114226106918292],[0.045119485818797975,0.0008618194612414257,58.74816320925759,-0.000271566155925762,0.062333148641804635,-0.00037979210406882154,-0.0013320293506329688,-0.0004420846665017745,0.017260560522207067,0.0003494483235196928,0.00005617259162848464,-0.9056389669236018,-0.00009552704821730703],[-0.003394844506922797,0.000005499701805571841,0.006541081962832269,0.009933234651372242,0.6163046943951838,-0.00015014196509607232,0.0005586079479372742,0.2027129292576063,0.6016575568229815,-37.37910967339116,0.0029063967926387445,-0.07087604210454303,9.14119494391045],[-0.00003912487376713378,0.0007896242394044364,-0.01636323450611711,2.8235347745952075,0.025074923649641558,-0.0006986074745771621,0.027923904509782153,2.7167198990504446,-0.000043937034114893076,-0.0005641962851469779,1.0245540553457582,-1.1394894419566826,-1.1422838151611545],[-0.00982689459076302,-0.12121927434029366,-0.000021940648696436967,-0.012105271765915589,-0.000009135692321804154,-0.000010406417871077466,-0.009287232762056338,-0.00005887843483667719,-0.011910046294110117,0.00005474806860732487,0.1199881513584351,0.000012273701665713217,-0.000009663420278071261],[-0.19685192814750324,0.12501303003062347,-292.5024169579735,-0.002101176543820312,0.15022929675618754,-1.371943960088744,0.012174589714076364,-0.01892875199444652,2.668516504519651,-0.0001700198158719022,0.0025690188942677017,0.00035763079476564485,0.08800023141559607],[0.000007238113783775004,0.00018689619921456477,0.00010256274630817189,0.04506721397296535,-0.00033385147746699175,-0.00021895064365368703,-0.0004115071640330588,0.003941065721198245,0.15724068753852263,-0.0016007891138407064,-0.16155376525095774,-0.0000017410474756674108,-5.590816989993112e-7],[-9.309714984116979e-7,-0.0008825524259206626,49.850297174442034,0.015163909159682078,0.002153673364039207,0.0030270085668635625,-0.0000028938632229979303,0.06948884283404955,-0.00004826333747874479,-0.1910460517684938,0.03149965213104321,-0.10507139004270268,-2.2027362920905684]]},"weightsToOutput":{"rows":4,"cols":18,"matrix":[[-5.263532202228346e-10,0.1865343993988049,-39.948370741515895,50.96246383789273,-0.3813851553253763,-0.0009185376107331742,0.0003239509371998843,-0.3492862220698641,0.002101544816364306,0.10676181591039022,3.6086699748931523,-0.054049802513906606,-0.053415786070324836,-0.46538585322218873,-1.356579067734783,0.011719726109908955,0.00032661142459697713,-0.00005889114969957046],[-0.6947051527103368,2.8436225226051257e-9,-0.006588185910209632,0.056031525353102594,0.049799090042041805,0.000002162284466273054,0.035767154945978465,-0.0074732324945159636,0.003222554423109224,-0.014297528709051873,0.0002539270939124505,0.0000015219926112150028,0.0000037322123152793167,-0.2806196203552435,-0.018907219392853142,-0.9170167622176425,-0.009756378185135339,0.02243246552069915],[0.6685363939001616,0.0000991813938198683,1.3676001341076722,-0.005865048255217142,-0.01956004939418966,-0.00028750384447728686,-0.0018660519245004407,-0.0011178165601743461,-0.07854657984635918,-0.000004666225380800266,0.009023074309084096,-0.00013529915582163716,0.003922928005661704,15.681759148690578,0.032577216345913027,0.005803689735901791,-3.3160033971703093,-3.091466720782847],[-1.2632624207200338,-0.8516073026054405,0.0002669327648129485,-0.0448711393227762,-0.0224962971946263,-0.00019419005312399095,-0.00014152248836000637,0.0017853801669056749,0.0005193705676272745,0.2946657887693499,-1.2065177291084002,0.025334519726091145,-0.3872108692583158,-0.011211417834629566,-0.08104159145570469,-10.226332285110397,0.004607646787276922,6.002718580661118]]},"biasToHidden":{"rows":18,"cols":1,"matrix":[[-1.4865495266603599],[-0.6559479172476931],[-1.0035266313382145],[0.005334455535590008],[1.1698481964028546],[-0.07262180624150806],[8.019732308642655e-8],[0.015641991183791042],[-0.000695447300161745],[-0.046981647006656524],[-0.00013007758375064717],[0.32421720843093005],[-0.06766100046080376],[0.0009815504086687112],[2.22833435298409],[0.0004747992325777878],[0.005755366407119623],[1.0808594442514181]]},"biasToOutput":{"rows":4,"cols":1,"matrix":[[-0.000011720296461549489],[0.02015456006336289],[0.004098608675956561],[-3.666126359246527]]},"learningRate":0.1},"instructions":[],"body":[{"x":-25,"y":375,"size":25,"instructions":[[-25,375,"L"]],"speedX":-25,"speedY":0,"index1":-1,"index2":15}],"size":25,"collide":true,"points":0,"apple":{"size":25,"x":750,"y":350,"index1":30,"index2":14},"traveledDistance":17,"moves":83,"map":{"rows":32,"cells":[[-10,-10,-10,-10,-10,-10,-10,-10,-10,-10,-10,-10,-10,-10,-10,-10,-10,-10,-10,-10,-10,-10,-10,-10,-10,-10,-10,-10,-10,-10,-10,-10],[-10,1,1,1,1,1,1,1,1,1,1,1,1,1,1,1,1,1,1,1,1,1,1,1,1,1,1,1,1,1,1,-10],[-10,1,1,1,1,1,1,1,1,1,1,1,1,1,1,1,1,1,1,1,1,1,1,1,1,1,1,1,1,1,1,-10],[-10,1,1,1,1,1,1,1,1,1,1,1,1,1,1,1,1,1,1,1,1,1,1,1,1,1,1,1,1,1,1,-10],[-10,1,1,1,1,1,1,1,1,1,1,1,1,1,1,1,1,1,1,1,1,1,1,1,1,1,1,1,1,1,1,-10],[-10,1,1,1,1,1,1,1,1,1,1,1,1,1,1,1,1,1,1,1,1,1,1,1,1,1,1,1,1,1,1,-10],[-10,1,1,1,1,1,1,1,1,1,1,1,1,1,1,1,1,1,1,1,1,1,1,1,1,1,1,1,1,1,1,-10],[-10,1,1,1,1,1,1,1,1,1,1,1,1,1,1,1,1,1,1,1,1,1,1,1,1,1,1,1,1,1,1,-10],[-10,1,1,1,1,1,1,1,1,1,1,1,1,1,1,1,1,1,1,1,1,1,1,1,1,1,1,1,1,1,1,-10],[-10,1,1,1,1,1,1,1,1,1,1,1,1,1,1,1,1,1,1,1,1,1,1,1,1,1,1,1,1,1,1,-10],[-10,1,1,1,1,1,1,1,1,1,1,1,1,1,1,1,1,1,1,1,1,1,1,1,1,1,1,1,1,1,1,-10],[-10,1,1,1,1,1,1,1,1,1,1,1,1,1,1,1,1,1,1,1,1,1,1,1,1,1,1,1,1,1,1,-10],[-10,1,1,1,1,1,1,1,1,1,1,1,1,1,1,1,1,1,1,1,1,1,1,1,1,1,1,1,1,1,1,-10],[-10,1,1,1,1,1,1,1,1,1,1,1,1,1,1,1,1,1,1,1,1,1,1,1,1,1,1,1,1,1,1,-10],[-10,1,1,1,1,1,1,1,1,1,1,1,1,1,1,1,1,1,1,1,1,1,1,1,1,1,1,1,1,1,1,-10],[-10,1,1,1,1,1,1,1,1,1,1,1,1,1,1,1,1,1,1,1,1,1,1,1,1,1,1,1,1,1,1,-10],[-10,1,1,1,1,1,1,1,1,1,1,1,1,1,1,1,1,1,1,1,1,1,1,1,1,1,1,1,1,1,1,-10],[-10,1,1,1,1,1,1,1,1,1,1,1,1,1,1,1,1,1,1,1,1,1,1,1,1,1,1,1,1,1,1,-10],[-10,1,1,1,1,1,1,1,1,1,1,1,1,1,1,1,1,1,1,1,1,1,1,1,1,1,1,1,1,1,1,-10],[-10,1,1,1,1,1,1,1,1,1,1,1,1,1,1,1,1,1,1,1,1,1,1,1,1,1,1,1,1,1,1,-10],[-10,1,1,1,1,1,1,1,1,1,1,1,1,1,1,1,1,1,1,1,1,1,1,1,1,1,1,1,1,1,1,-10],[-10,1,1,1,1,1,1,1,1,1,1,1,1,1,1,1,1,1,1,1,1,1,1,1,1,1,1,1,1,1,1,-10],[-10,1,1,1,1,1,1,1,1,1,1,1,1,1,1,1,1,1,1,1,1,1,1,1,1,1,1,1,1,1,1,-10],[-10,1,1,1,1,1,1,1,1,1,1,1,1,1,1,1,1,1,1,1,1,1,1,1,1,1,1,1,1,1,1,-10],[-10,1,1,1,1,1,1,1,1,1,1,1,1,1,1,1,1,1,1,1,1,1,1,1,1,1,1,1,1,1,1,-10],[-10,1,1,1,1,1,1,1,1,1,1,1,1,1,1,1,1,1,1,1,1,1,1,1,1,1,1,1,1,1,1,-10],[-10,1,1,1,1,1,1,1,1,1,1,1,1,1,1,1,1,1,1,1,1,1,1,1,1,1,1,1,1,1,1,-10],[-10,1,1,1,1,1,1,1,1,1,1,1,1,1,1,1,1,1,1,1,1,1,1,1,1,1,1,1,1,1,1,-10],[-10,1,1,1,1,1,1,1,1,1,1,1,1,1,1,1,1,1,1,1,1,1,1,1,1,1,1,1,1,1,1,-10],[-10,1,1,1,1,1,1,1,1,1,1,1,1,5,5,5,1,1,1,1,1,1,1,1,1,1,1,1,1,1,1,-10],[-10,1,1,1,1,1,1,1,1,1,1,1,1,5,10,5,1,1,1,1,1,1,1,1,1,1,1,1,1,1,1,-10],[-10,-10,-10,-10,-10,-10,-10,-10,-10,-10,-10,-10,-10,5,5,5,-10,-10,-10,-10,-10,-10,-10,-10,-10,-10,-10,-10,-10,-10,-10,-10]]}},{"fitness":324,"brain":{"input_num":13,"hidden_num":18,"output_num":4,"hiddenLayers_num":1,"AdditionalHiddenLayers":[],"weightsToHidden":{"rows":18,"cols":13,"matrix":[[-0.011869289680310981,-0.000125668472600001,9.05065572016327,0.19932121609847425,-0.554472543903876,-1.0407560007739316,12.485828664795081,0.0000175739932522666,4.226383106881173,0.0003297877221609359,-0.000057897663346680284,0.08037611527901403,0.05371754204839026],[1.3776719646027347,0.0009469375327064465,-7.095331828767209,0.12293227850408497,0.00009683659792083889,-3.4041253163413345,11.783388423824768,-0.000006080867234694018,0.0003384895268846641,0.1086136601630687,1.064774575859149,0.00014306253831991055,0.7362648856803007],[-0.5582737366333864,-0.6054352467184967,-0.0010491146814825567,-0.000034227033369795855,-0.000010177317896247338,70.33865671715506,15.850835895396731,0.04188989503791417,0.00008867074438161374,-1.644367078926087,-0.0005337968772988337,0.00187957037214525,1.616669639688753],[-3.3479096640689425,0.00013021763240934436,-0.09218657182880893,-22.449996055274763,0.002564563038592433,0.1067489177827094,0.023394634658676233,0.000001239500453339912,-1.9194824275987372,0.04018111021656046,0.001894233356970836,-4.213561976933316,0.0000013089546343371452],[0.08366684277730678,-0.0016537127984573986,-0.0956987810049396,-0.42786015479764894,-0.007598150132770367,0.6500030986527192,0.00016262232077873494,0.0006726288961466884,-2.3642342693847324e-11,0.020028829752150992,-0.1880984266590007,-52.65591559678444,0.012660718554527873],[-9.976473991074709,-0.06800478140153665,0.002601658903851566,-0.05393742929109078,0.11567685677377061,0.002287816358751733,-0.033221824085301714,-0.2674980859088327,0.000038028857291558166,-4.987183638776892e-7,2.5142651540437226,0.011795847857496327,-0.392846417248525],[-11.886047660962737,-0.000001976210790553614,0.000016797858512614798,-7.028836863660426,-0.11571447672398914,-0.000037695910657542136,-0.01316933697966794,0.04884744998574819,-0.000007573619390685139,-1.3103445630798607,-0.0000021748500176238846,1.0980499216077049,0.0009683128666159399],[-0.2082025357825242,-0.16770851500652156,-5.395634287006904,0.024822111094506716,0.023871962181985333,0.002343379958420291,0.2668088942389862,0.018225104125655804,-0.02730555923204747,0.2571722844566501,-2.1578398067268005,-0.7831953454877834,0.21827977896592782],[0.23015372369897408,0.02454083391432991,7.15007302634428,0.000003932006911197681,-0.0019021615581030812,-0.0005580159575044913,0.023737583539003546,4.91769220017831,277.6703897883372,0.014055879586001631,2.55779284565311,0.002748214626609756,-0.009587247492081745],[-0.0003394345988348696,0.0015563108158498868,0.0003233092241701664,-0.00003607937717670355,0.0002890320255811631,0.02353476559074423,0.005886170670879783,0.00019024383320774053,-2.2347532345978395e-7,-17.487244188327427,0.1310207317803128,-0.0001415167616159511,0.20480598093615449],[-45.87900766700175,-0.000029355204120153566,1.4929997995415623,-0.015833963047646796,-0.000039174130586011684,-0.009048916260711888,-0.13737051982950976,-0.010245136389648501,-0.0006858624164174124,5.967650935211543e-7,-0.04637269350379545,0.019847033104971414,0.114226106918292],[-0.4600812843785991,-0.0030586663414650804,58.74816320925759,-0.000271566155925762,0.062333148641804635,-0.00019814981167434314,-0.0030985962110831023,-0.0004420846665017745,0.020664724076402678,0.0003494483235196928,0.00005617259162848464,-0.9056389669236018,-0.00009552704821730703],[-0.007193577207858737,0.000005499701805571841,0.006541081962832269,-0.002445140903927769,0.6163046943951838,-0.00015014196509607232,0.0005586079479372742,0.2027129292576063,0.6016575568229815,-17.564732089110485,0.0029063967926387445,-0.2703376062683166,9.14119494391045],[-0.00003912487376713378,0.0007896242394044364,-0.01636323450611711,-51.62133420995748,0.06513741742198052,-0.0006986074745771621,0.03907674261065966,2.539895323990332,-0.000043937034114893076,-0.0007083948423333704,0.15123531234259685,-1.1394894419566826,-1.1422838151611545],[-0.011613398034367449,-0.10230118294131994,-0.000021940648696436967,-0.012105271765915589,-0.000009135692321804154,-0.000010406417871077466,-0.011672052155542295,0.00006093580069022421,-0.0035652714288365865,-0.00011446337167057316,0.1199881513584351,0.000012273701665713217,-0.000009663420278071261],[-0.0873141686033713,0.12501303003062347,-292.5024169579735,0.16093131096695318,0.1229369502917293,-1.371943960088744,0.004376825750472158,-0.01892875199444652,2.668516504519651,-0.0001700198158719022,0.0025690188942677017,0.00035763079476564485,0.02062567896398287],[0.000007238113783775004,0.00018689619921456477,0.00010256274630817189,0.04506721397296535,-0.00033385147746699175,-0.00021895064365368703,-0.0004115071640330588,0.003941065721198245,0.15724068753852263,-0.0016007891138407064,-0.16155376525095774,-0.0000017410474756674108,-5.590816989993112e-7],[-0.000002379567751305631,-0.004809986772391321,49.850297174442034,0.015163909159682078,0.002153673364039207,0.0012832862505740594,0.00000580209556960269,0.06948884283404955,-0.00004826333747874479,-0.050313597551816976,0.03149965213104321,-0.10507139004270268,-2.2027362920905684]]},"weightsToOutput":{"rows":4,"cols":18,"matrix":[[-7.822808697204429e-10,0.1865343993988049,-39.948370741515895,148.3196308676985,-0.3813851553253763,-0.0009185376107331742,0.0003239509371998843,-0.3492862220698641,0.002101544816364306,0.10676181591039022,3.6086699748931523,-0.054049802513906606,-0.053415786070324836,-0.46538585322218873,-1.356579067734783,0.011719726109908955,0.00032661142459697713,-0.00005889114969957046],[-0.6947051527103368,5.1078015242454915e-9,-0.00588888170677361,0.056031525353102594,0.028691985137651213,0.000002162284466273054,0.0659198211310751,-0.004741934805159632,0.003222554423109224,-0.0060843465237418615,0.0002539270939124505,0.0000015219926112150028,0.0000025717329975223072,-0.596076837216442,-0.018907219392853142,-0.9170167622176425,-0.003978407275641013,0.02243246552069915],[0.12887057244326056,0.00024356772188777415,1.3676001341076722,-0.0037223512035607542,-0.01956004939418966,-0.00028750384447728686,-0.0018660519245004407,-0.0011178165601743461,-0.07854657984635918,-3.969624907532954e-7,0.009023074309084096,0.002369452939055085,0.003922928005661704,-2.1371763286862664,0.032577216345913027,0.005803689735901791,-0.4087354664338623,-3.091466720782847],[-2.0918616248404622,-0.8516073026054405,0.0006830511365117643,-0.0448711393227762,-0.04910249694277532,-0.00019419005312399095,-0.00014152248836000637,0.0007511069164102457,0.0005193705676272745,0.2946657887693499,-1.2065177291084002,0.025334519726091145,-0.3872108692583158,-0.011211417834629566,-0.08104159145570469,-10.226332285110397,0.0020578711272124404,-2.7049923630297568]]},"biasToHidden":{"rows":18,"cols":1,"matrix":[[-1.4865495266603599],[-0.6559479172476931],[-1.0035266313382145],[0.005334455535590008],[1.1698481964028546],[-0.07262180624150806],[8.019732308642655e-8],[0.015641991183791042],[0.0006108738463849782],[-0.046981647006656524],[-0.00013007758375064717],[0.27529204016831976],[-0.01818025818270397],[0.00009064626670844877],[-0.13377120174480275],[0.0004747992325777878],[0.005755366407119623],[1.0808594442514181]]},"biasToOutput":{"rows":4,"cols":1,"matrix":[[-0.000007760792317139283],[0.033983340051193765],[0.004098608675956561],[-3.666126359246527]]},"learningRate":0.1},"instructions":[],"body":[{"x":375,"y":800,"size":25,"instructions":[[375,800,"U"]],"speedX":0,"speedY":25,"index1":15,"index2":32}],"size":25,"collide":true,"points":0,"apple":{"size":25,"x":725,"y":375,"index1":29,"index2":15},"traveledDistance":18,"moves":82,"map":{"rows":32,"cells":[[-10,-10,-10,-10,-10,-10,-10,-10,-10,-10,-10,-10,-10,-10,-10,-10,-10,-10,-10,-10,-10,-10,-10,-10,-10,-10,-10,-10,-10,-10,-10,-10],[-10,1,1,1,1,1,1,1,1,1,1,1,1,1,1,1,1,1,1,1,1,1,1,1,1,1,1,1,1,1,1,-10],[-10,1,1,1,1,1,1,1,1,1,1,1,1,1,1,1,1,1,1,1,1,1,1,1,1,1,1,1,1,1,1,-10],[-10,1,1,1,1,1,1,1,1,1,1,1,1,1,1,1,1,1,1,1,1,1,1,1,1,1,1,1,1,1,1,-10],[-10,1,1,1,1,1,1,1,1,1,1,1,1,1,1,1,1,1,1,1,1,1,1,1,1,1,1,1,1,1,1,-10],[-10,1,1,1,1,1,1,1,1,1,1,1,1,1,1,1,1,1,1,1,1,1,1,1,1,1,1,1,1,1,1,-10],[-10,1,1,1,1,1,1,1,1,1,1,1,1,1,1,1,1,1,1,1,1,1,1,1,1,1,1,1,1,1,1,-10],[-10,1,1,1,1,1,1,1,1,1,1,1,1,1,1,1,1,1,1,1,1,1,1,1,1,1,1,1,1,1,1,-10],[-10,1,1,1,1,1,1,1,1,1,1,1,1,1,1,1,1,1,1,1,1,1,1,1,1,1,1,1,1,1,1,-10],[-10,1,1,1,1,1,1,1,1,1,1,1,1,1,1,1,1,1,1,1,1,1,1,1,1,1,1,1,1,1,1,-10],[-10,1,1,1,1,1,1,1,1,1,1,1,1,1,1,1,1,1,1,1,1,1,1,1,1,1,1,1,1,1,1,-10],[-10,1,1,1,1,1,1,1,1,1,1,1,1,1,1,1,1,1,1,1,1,1,1,1,1,1,1,1,1,1,1,-10],[-10,1,1,1,1,1,1,1,1,1,1,1,1,1,1,1,1,1,1,1,1,1,1,1,1,1,1,1,1,1,1,-10],[-10,1,1,1,1,1,1,1,1,1,1,1,1,1,1,1,1,1,1,1,1,1,1,1,1,1,1,1,1,1,1,-10],[-10,1,1,1,1,1,1,1,1,1,1,1,1,1,1,1,1,1,1,1,1,1,1,1,1,1,1,1,1,1,1,-10],[-10,1,1,1,1,1,1,1,1,1,1,1,1,1,1,1,1,1,1,1,1,1,1,1,1,1,1,1,1,1,1,-10,-10],[-10,1,1,1,1,1,1,1,1,1,1,1,1,1,1,1,1,1,1,1,1,1,1,1,1,1,1,1,1,1,1,-10],[-10,1,1,1,1,1,1,1,1,1,1,1,1,1,1,1,1,1,1,1,1,1,1,1,1,1,1,1,1,1,1,-10],[-10,1,1,1,1,1,1,1,1,1,1,1,1,1,1,1,1,1,1,1,1,1,1,1,1,1,1,1,1,1,1,-10],[-10,1,1,1,1,1,1,1,1,1,1,1,1,1,1,1,1,1,1,1,1,1,1,1,1,1,1,1,1,1,1,-10],[-10,1,1,1,1,1,1,1,1,1,1,1,1,1,1,1,1,1,1,1,1,1,1,1,1,1,1,1,1,1,1,-10],[-10,1,1,1,1,1,1,1,1,1,1,1,1,1,1,1,1,1,1,1,1,1,1,1,1,1,1,1,1,1,1,-10],[-10,1,1,1,1,1,1,1,1,1,1,1,1,1,1,1,1,1,1,1,1,1,1,1,1,1,1,1,1,1,1,-10],[-10,1,1,1,1,1,1,1,1,1,1,1,1,1,1,1,1,1,1,1,1,1,1,1,1,1,1,1,1,1,1,-10],[-10,1,1,1,1,1,1,1,1,1,1,1,1,1,1,1,1,1,1,1,1,1,1,1,1,1,1,1,1,1,1,-10],[-10,1,1,1,1,1,1,1,1,1,1,1,1,1,1,1,1,1,1,1,1,1,1,1,1,1,1,1,1,1,1,-10],[-10,1,1,1,1,1,1,1,1,1,1,1,1,1,1,1,1,1,1,1,1,1,1,1,1,1,1,1,1,1,1,-10],[-10,1,1,1,1,1,1,1,1,1,1,1,1,1,1,1,1,1,1,1,1,1,1,1,1,1,1,1,1,1,1,-10],[-10,1,1,1,1,1,1,1,1,1,1,1,1,1,5,5,5,1,1,1,1,1,1,1,1,1,1,1,1,1,1,-10],[-10,1,1,1,1,1,1,1,1,1,1,1,1,1,5,10,5,1,1,1,1,1,1,1,1,1,1,1,1,1,1,-10],[-10,1,1,1,1,1,1,1,1,1,1,1,1,1,5,5,5,1,1,1,1,1,1,1,1,1,1,1,1,1,1,-10],[-10,-10,-10,-10,-10,-10,-10,-10,-10,-10,-10,-10,-10,-10,-10,-10,-10,-10,-10,-10,-10,-10,-10,-10,-10,-10,-10,-10,-10,-10,-10,-10]]}},{"fitness":324,"brain":{"input_num":13,"hidden_num":18,"output_num":4,"hiddenLayers_num":1,"AdditionalHiddenLayers":[],"weightsToHidden":{"rows":18,"cols":13,"matrix":[[-0.011869289680310981,-0.000125668472600001,9.05065572016327,0.19932121609847425,-0.554472543903876,-1.0407560007739316,12.485828664795081,0.0000175739932522666,4.226383106881173,0.0003297877221609359,-0.000057897663346680284,0.08037611527901403,0.05371754204839026],[1.3776719646027347,0.0009469375327064465,-7.095331828767209,0.12293227850408497,0.00009683659792083889,-2.0463064498731973,11.783388423824768,-0.000006080867234694018,0.0003384895268846641,0.1086136601630687,1.064774575859149,0.00014306253831991055,0.7362648856803007],[-0.5582737366333864,-0.6054352467184967,-0.0010491146814825567,-0.000034227033369795855,-0.000010177317896247338,70.33865671715506,15.850835895396731,0.04188989503791417,0.00008867074438161374,-1.644367078926087,-0.0005337968772988337,-0.015509396461773031,1.616669639688753],[-3.3479096640689425,0.00013021763240934436,-0.050919367934127886,-22.449996055274763,0.002564563038592433,0.1067489177827094,0.023394634658676233,0.000002007771217355081,-1.9194824275987372,0.04018111021656046,0.001894233356970836,-4.213561976933316,0.0000013089546343371452],[0.08366684277730678,-0.0016537127984573986,-0.0956987810049396,-0.42786015479764894,-0.007598150132770367,0.6500030986527192,0.00016262232077873494,0.0006726288961466884,-2.3642342693847324e-11,0.020028829752150992,-0.1880984266590007,-52.65591559678444,0.012660718554527873],[-9.976473991074709,-0.06800478140153665,0.002601658903851566,-0.05393742929109078,0.11567685677377061,0.002287816358751733,-0.033221824085301714,13.388382189057054,0.000038028857291558166,-4.987183638776892e-7,2.5142651540437226,0.011795847857496327,-0.392846417248525],[-11.886047660962737,-0.000001976210790553614,0.000016797858512614798,-7.028836863660426,-0.11571447672398914,-0.000037695910657542136,-0.01316933697966794,0.04884744998574819,-0.000007573619390685139,-1.3103445630798607,-0.0000021748500176238846,1.0980499216077049,0.0009683128666159399],[-0.2082025357825242,-0.16770851500652156,-5.395634287006904,0.024822111094506716,0.023871962181985333,0.002343379958420291,0.2668088942389862,0.018225104125655804,-0.02730555923204747,0.2571722844566501,-2.1578398067268005,-0.7831953454877834,0.21827977896592782],[0.23015372369897408,0.02454083391432991,7.15007302634428,0.000003932006911197681,-0.0019021615581030812,-0.0005580159575044913,0.023737583539003546,4.91769220017831,277.6703897883372,0.014055879586001631,2.55779284565311,0.002748214626609756,-0.009587247492081745],[-0.0003394345988348696,0.0013496414796034825,0.0006806706842832319,-0.00003727957448477148,0.0002890320255811631,0.02353476559074423,0.0033909947665272124,0.00019024383320774053,-2.2347532345978395e-7,-17.487244188327427,0.1310207317803128,-0.0001415167616159511,0.20480598093615449],[-45.87900766700175,-0.000029355204120153566,1.4929997995415623,-0.015833963047646796,-0.000039174130586011684,-0.004367925427458584,-0.13737051982950976,-0.020390907475214715,-0.0006858624164174124,5.967650935211543e-7,-0.04637269350379545,0.019847033104971414,0.114226106918292],[-0.4600812843785991,0.0008618194612414257,58.74816320925759,-0.000271566155925762,0.02766627599362188,-0.00019814981167434314,-0.0013320293506329688,-0.0009662419473091059,0.020664724076402678,0.0003494483235196928,0.00005617259162848464,-0.9056389669236018,-0.00009552704821730703],[-0.003394844506922797,0.000005499701805571841,0.006541081962832269,0.009933234651372242,0.6163046943951838,-0.00015014196509607232,0.0005586079479372742,0.2027129292576063,0.6016575568229815,-37.37910967339116,0.0029063967926387445,-0.07087604210454303,9.14119494391045],[-0.00003912487376713378,0.0007896242394044364,-0.01636323450611711,-51.62133420995748,0.07516888647320943,-0.0006986074745771621,0.03907674261065966,2.539895323990332,-0.000043937034114893076,-0.0005641962851469779,0.15123531234259685,-1.1394894419566826,-1.1422838151611545],[-0.00982689459076302,-0.12121927434029366,-0.00007979245729552374,-0.012105271765915589,-0.000009135692321804154,-0.000010406417871077466,-0.011672052155542295,0.00006093580069022421,-0.0035652714288365865,-0.00011446337167057316,0.1199881513584351,0.000012273701665713217,-0.000004324173812678405],[-0.0873141686033713,0.12501303003062347,-292.5024169579735,0.07994367474953272,0.1229369502917293,-1.371943960088744,0.004376825750472158,-0.01892875199444652,2.668516504519651,0.00003974059599718185,0.0025690188942677017,0.00035763079476564485,0.08800023141559607],[0.000007238113783775004,0.0005130274616496422,0.00010256274630817189,0.03551117800243732,-0.00033385147746699175,-0.00021895064365368703,-0.0004115071640330588,0.003941065721198245,0.15724068753852263,-0.0016007891138407064,-0.16155376525095774,-0.0000017410474756674108,-5.590816989993112e-7],[-9.309714984116979e-7,-0.004809986772391321,49.850297174442034,0.03439171290380328,0.002153673364039207,0.002752966201156985,0.00000580209556960269,0.03558028768833548,-0.00004826333747874479,-0.1910460517684938,0.03149965213104321,-0.09967676629275754,-2.2027362920905684]]},"weightsToOutput":{"rows":4,"cols":18,"matrix":[[-5.263532202228346e-10,0.1865343993988049,-39.948370741515895,50.96246383789273,-0.3813851553253763,-0.0009185376107331742,0.0003239509371998843,-0.3492862220698641,0.002101544816364306,0.10676181591039022,3.6086699748931523,-0.054049802513906606,-0.053415786070324836,-0.46538585322218873,-1.356579067734783,0.011719726109908955,0.00032661142459697713,-0.00005889114969957046],[-1.4452138718078766,5.1078015242454915e-9,-0.006588185910209632,0.056031525353102594,0.04953467666491739,0.000002162284466273054,0.047213601569988425,-0.007916206620376592,0.003222554423109224,-0.0060843465237418615,-0.000006834722258973507,0.0000015219926112150028,0.0000037322123152793167,-0.2806196203552435,-0.018907219392853142,-0.9170167622176425,-0.003978407275641013,0.02243246552069915],[0.6685363939001616,0.0000991813938198683,3.0666722787588596,-0.0037223512035607542,-0.01956004939418966,-0.00024378229140850166,-0.0026935318381358046,-0.0011178165601743461,-0.07854657984635918,-0.000004666225380800266,0.022432966326928778,-0.00013529915582163716,0.003922928005661704,11.082785443853867,0.032577216345913027,0.005803689735901791,-3.3160033971703093,-3.091466720782847],[-1.2632624207200338,-0.8516073026054405,0.0010699205228902676,-0.03210105187013492,-0.0224962971946263,-0.00015482644314417129,0.00008324216150620769,0.0008155118698797626,0.0005193705676272745,0.2946657887693499,-1.207843045397872,0.025334519726091145,-0.3872108692583158,-0.011211417834629566,-0.09175553372647952,-10.226332285110397,0.005622013003584048,6.002718580661118]]},"biasToHidden":{"rows":18,"cols":1,"matrix":[[-1.4865495266603599],[-0.6559479172476931],[-1.0035266313382145],[0.005334455535590008],[1.1698481964028546],[-0.07262180624150806],[8.019732308642655e-8],[0.015641991183791042],[-0.000695447300161745],[-0.046981647006656524],[-0.00013007758375064717],[0.32421720843093005],[-0.06766100046080376],[0.00003551966019799018],[2.22833435298409],[0.0004747992325777878],[0.005755366407119623],[1.0808594442514181]]},"biasToOutput":{"rows":4,"cols":1,"matrix":[[-0.000011720296461549489],[0.02015456006336289],[0.004098608675956561],[-3.666126359246527]]},"learningRate":0.1},"instructions":[],"body":[{"x":800,"y":375,"size":25,"instructions":[[800,375,"L"]],"speedX":25,"speedY":0,"index1":32,"index2":15}],"size":25,"collide":true,"points":0,"apple":{"size":25,"x":75,"y":600,"index1":3,"index2":24},"traveledDistance":18,"moves":82,"map":{"rows":32,"cells":[[-10,-10,-10,-10,-10,-10,-10,-10,-10,-10,-10,-10,-10,-10,-10,-10,-10,-10,-10,-10,-10,-10,-10,-10,-10,-10,-10,-10,-10,-10,-10,-10],[-10,1,1,1,1,1,1,1,1,1,1,1,1,1,1,1,1,1,1,1,1,1,1,1,1,1,1,1,1,1,1,-10],[-10,1,1,1,1,1,1,1,1,1,1,1,1,1,1,1,1,1,1,1,1,1,1,5,5,5,1,1,1,1,1,-10],[-10,1,1,1,1,1,1,1,1,1,1,1,1,1,1,1,1,1,1,1,1,1,1,5,10,5,1,1,1,1,1,-10],[-10,1,1,1,1,1,1,1,1,1,1,1,1,1,1,1,1,1,1,1,1,1,1,5,5,5,1,1,1,1,1,-10],[-10,1,1,1,1,1,1,1,1,1,1,1,1,1,1,1,1,1,1,1,1,1,1,1,1,1,1,1,1,1,1,-10],[-10,1,1,1,1,1,1,1,1,1,1,1,1,1,1,1,1,1,1,1,1,1,1,1,1,1,1,1,1,1,1,-10],[-10,1,1,1,1,1,1,1,1,1,1,1,1,1,1,1,1,1,1,1,1,1,1,1,1,1,1,1,1,1,1,-10],[-10,1,1,1,1,1,1,1,1,1,1,1,1,1,1,1,1,1,1,1,1,1,1,1,1,1,1,1,1,1,1,-10],[-10,1,1,1,1,1,1,1,1,1,1,1,1,1,1,1,1,1,1,1,1,1,1,1,1,1,1,1,1,1,1,-10],[-10,1,1,1,1,1,1,1,1,1,1,1,1,1,1,1,1,1,1,1,1,1,1,1,1,1,1,1,1,1,1,-10],[-10,1,1,1,1,1,1,1,1,1,1,1,1,1,1,1,1,1,1,1,1,1,1,1,1,1,1,1,1,1,1,-10],[-10,1,1,1,1,1,1,1,1,1,1,1,1,1,1,1,1,1,1,1,1,1,1,1,1,1,1,1,1,1,1,-10],[-10,1,1,1,1,1,1,1,1,1,1,1,1,1,1,1,1,1,1,1,1,1,1,1,1,1,1,1,1,1,1,-10],[-10,1,1,1,1,1,1,1,1,1,1,1,1,1,1,1,1,1,1,1,1,1,1,1,1,1,1,1,1,1,1,-10],[-10,1,1,1,1,1,1,1,1,1,1,1,1,1,1,1,1,1,1,1,1,1,1,1,1,1,1,1,1,1,1,-10],[-10,1,1,1,1,1,1,1,1,1,1,1,1,1,1,1,1,1,1,1,1,1,1,1,1,1,1,1,1,1,1,-10],[-10,1,1,1,1,1,1,1,1,1,1,1,1,1,1,1,1,1,1,1,1,1,1,1,1,1,1,1,1,1,1,-10],[-10,1,1,1,1,1,1,1,1,1,1,1,1,1,1,1,1,1,1,1,1,1,1,1,1,1,1,1,1,1,1,-10],[-10,1,1,1,1,1,1,1,1,1,1,1,1,1,1,1,1,1,1,1,1,1,1,1,1,1,1,1,1,1,1,-10],[-10,1,1,1,1,1,1,1,1,1,1,1,1,1,1,1,1,1,1,1,1,1,1,1,1,1,1,1,1,1,1,-10],[-10,1,1,1,1,1,1,1,1,1,1,1,1,1,1,1,1,1,1,1,1,1,1,1,1,1,1,1,1,1,1,-10],[-10,1,1,1,1,1,1,1,1,1,1,1,1,1,1,1,1,1,1,1,1,1,1,1,1,1,1,1,1,1,1,-10],[-10,1,1,1,1,1,1,1,1,1,1,1,1,1,1,1,1,1,1,1,1,1,1,1,1,1,1,1,1,1,1,-10],[-10,1,1,1,1,1,1,1,1,1,1,1,1,1,1,1,1,1,1,1,1,1,1,1,1,1,1,1,1,1,1,-10],[-10,1,1,1,1,1,1,1,1,1,1,1,1,1,1,1,1,1,1,1,1,1,1,1,1,1,1,1,1,1,1,-10],[-10,1,1,1,1,1,1,1,1,1,1,1,1,1,1,1,1,1,1,1,1,1,1,1,1,1,1,1,1,1,1,-10],[-10,1,1,1,1,1,1,1,1,1,1,1,1,1,1,1,1,1,1,1,1,1,1,1,1,1,1,1,1,1,1,-10],[-10,1,1,1,1,1,1,1,1,1,1,1,1,1,1,1,1,1,1,1,1,1,1,1,1,1,1,1,1,1,1,-10],[-10,1,1,1,1,1,1,1,1,1,1,1,1,1,1,1,1,1,1,1,1,1,1,1,1,1,1,1,1,1,1,-10],[-10,1,1,1,1,1,1,1,1,1,1,1,1,1,1,1,1,1,1,1,1,1,1,1,1,1,1,1,1,1,1,-10],[-10,-10,-10,-10,-10,-10,-10,-10,-10,-10,-10,-10,-10,-10,-10,-10,-10,-10,-10,-10,-10,-10,-10,-10,-10,-10,-10,-10,-10,-10,-10,-10]]}},{"fitness":324,"brain":{"input_num":13,"hidden_num":18,"output_num":4,"hiddenLayers_num":1,"AdditionalHiddenLayers":[],"weightsToHidden":{"rows":18,"cols":13,"matrix":[[-0.011869289680310981,-0.000125668472600001,9.05065572016327,0.19932121609847425,-0.554472543903876,-1.0407560007739316,12.485828664795081,0.000041604405377864736,4.226383106881173,0.0003297877221609359,-0.000057897663346680284,0.08037611527901403,0.05371754204839026],[1.3776719646027347,0.0005278934205186079,-7.095331828767209,0.12293227850408497,0.00009683659792083889,-1.4555250590022988,11.783388423824768,-0.000006080867234694018,0.0004381834983978441,0.1086136601630687,1.064774575859149,0.00014306253831991055,0.7362648856803007],[-0.5582737366333864,-0.6054352467184967,-0.003209423403034549,-0.000034227033369795855,-0.000010177317896247338,70.33865671715506,15.850835895396731,0.04188989503791417,0.00008867074438161374,-1.644367078926087,-0.00038116906066000924,-0.015509396461773031,1.616669639688753],[-3.3479096640689425,0.00013021763240934436,-0.050919367934127886,-22.449996055274763,0.0034071932332649375,0.1067489177827094,0.023394634658676233,0.000001239500453339912,-1.9194824275987372,0.04018111021656046,0.001894233356970836,-4.213561976933316,0.0000013089546343371452],[0.08366684277730678,-0.0016537127984573986,-0.0956987810049396,-0.5649531336048731,-0.0003046089603359034,1.060998770745022,0.00016262232077873494,0.0006726288961466884,2.633955629843019e-13,0.020028829752150992,-0.1880984266590007,-90.30955983366601,0.012660718554527873],[-9.976473991074709,-0.06800478140153665,0.002601658903851566,-0.1124982321617101,0.11567685677377061,0.002287816358751733,-0.033221824085301714,13.388382189057054,0.000038028857291558166,-4.987183638776892e-7,2.5142651540437226,0.07093150629715557,-0.392846417248525],[-11.886047660962737,-0.000001976210790553614,0.000024569699821245246,-11.068040538582055,-0.11571447672398914,-0.00008438195574994437,-0.01316933697966794,0.04884744998574819,-0.000007573619390685139,-1.3103445630798607,-0.0000021748500176238846,1.0980499216077049,0.0009683128666159399],[-0.2082025357825242,-0.16770851500652156,0.3651777213455941,0.024822111094506716,0.023871962181985333,0.002343379958420291,0.1582887133910545,0.018225104125655804,-0.013612199558140893,0.2571722844566501,-2.1578398067268005,-0.4090664950360597,0.21827977896592782],[0.26312212643668964,0.02454083391432991,7.15007302634428,0.0000024032278796185506,-0.0019021615581030812,-0.0005580159575044913,0.04283817878974848,4.91769220017831,277.6703897883372,0.014055879586001631,2.55779284565311,0.002748214626609756,-0.018356541157419956],[-0.0003394345988348696,0.0032410944984939466,0.0006806706842832319,-0.00003607937717670355,0.0002890320255811631,0.02587388401308336,0.0033909947665272124,0.00019024383320774053,-2.2347532345978395e-7,-17.487244188327427,0.1310207317803128,-0.0001415167616159511,0.20480598093615449],[-45.87900766700175,-0.00011504965907656865,1.4929997995415623,-0.015833963047646796,-0.000039174130586011684,-0.009048916260711888,-0.13737051982950976,-0.010245136389648501,-0.0006858624164174124,5.967650935211543e-7,-0.04637269350379545,0.019847033104971414,0.114226106918292],[-0.4600812843785991,0.0008618194612414257,58.74816320925759,-0.000271566155925762,0.062333148641804635,-0.00019814981167434314,-0.0013320293506329688,-0.0004420846665017745,0.014634278848920467,0.0003494483235196928,0.00005617259162848464,-0.9056389669236018,-0.00009552704821730703],[-0.003394844506922797,0.000005499701805571841,0.006541081962832269,0.009933234651372242,0.6163046943951838,-0.00015014196509607232,0.0005586079479372742,0.2027129292576063,0.6016575568229815,-37.37910967339116,0.0029063967926387445,-0.07087604210454303,9.14119494391045],[-0.00003912487376713378,0.0007896242394044364,-0.01636323450611711,-51.62133420995748,0.06513741742198052,-0.0006986074745771621,0.03907674261065966,2.539895323990332,-0.000043937034114893076,-0.0005641962851469779,0.15123531234259685,-1.1394894419566826,-1.1422838151611545],[-0.00982689459076302,-0.12121927434029366,-0.000021940648696436967,-0.012105271765915589,-0.000009135692321804154,-0.000010406417871077466,-0.011672052155542295,0.0001282801499983214,-0.0035652714288365865,-0.00011446337167057316,0.1199881513584351,0.000012273701665713217,-0.000009663420278071261],[-0.0873141686033713,0.12501303003062347,-292.5024169579735,0.07994367474953272,0.1229369502917293,-1.371943960088744,0.008488553168203263,-0.01892875199444652,2.668516504519651,-0.0001700198158719022,0.0025690188942677017,0.00035763079476564485,0.08800023141559607],[0.000007238113783775004,0.00018689619921456477,0.00010256274630817189,0.04506721397296535,-0.0006760239339768239,-0.00021895064365368703,-0.0004115071640330588,0.003941065721198245,0.10027303807687227,-0.0016007891138407064,-0.16155376525095774,-0.0000017410474756674108,-5.590816989993112e-7],[-0.000002379567751305631,-0.004809986772391321,49.850297174442034,0.015163909159682078,0.002153673364039207,0.0012832862505740594,0.000005078823076272449,0.06948884283404955,-0.00004826333747874479,-0.050313597551816976,0.03149965213104321,-0.10507139004270268,-2.2027362920905684]]},"weightsToOutput":{"rows":4,"cols":18,"matrix":[[-5.263532202228346e-10,0.08674957729596455,-39.948370741515895,50.96246383789273,-0.3813851553253763,-0.0009185376107331742,0.0003239509371998843,-0.3492862220698641,0.002101544816364306,0.10676181591039022,3.6086699748931523,-0.054049802513906606,-0.053415786070324836,-0.46538585322218873,-1.356579067734783,0.011719726109908955,0.00032661142459697713,-0.000018255046423843404],[-0.6947051527103368,5.1078015242454915e-9,-0.006588185910209632,0.056031525353102594,-0.0012497043775481292,-2.479252313055272e-7,0.047213601569988425,-0.007916206620376592,0.003222554423109224,-0.012144951316588094,-0.000006834722258973507,0.0000015219926112150028,0.0000037322123152793167,-0.2806196203552435,-0.018907219392853142,-0.9170167622176425,-0.003978407275641013,0.02243246552069915],[0.6685363939001616,0.0000991813938198683,1.3676001341076722,-0.0037223512035607542,-0.009345526038356172,-0.00028750384447728686,-0.0026935318381358046,-0.0011178165601743461,-0.19349947555956978,-0.000004666225380800266,0.009023074309084096,-0.00013529915582163716,0.003922928005661704,15.681759148690578,0.032577216345913027,0.005803689735901791,-3.3160033971703093,-3.091466720782847],[-1.2632624207200338,-0.8516073026054405,0.0006830511365117643,-0.0448711393227762,-0.04910249694277532,-0.00019419005312399095,-0.00014152248836000637,0.0007511069164102457,0.0005193705676272745,0.2946657887693499,-1.2065177291084002,0.025334519726091145,-0.3872108692583158,-0.011211417834629566,-0.08104159145570469,-10.226332285110397,0.004607646787276922,10.256620291300825]]},"biasToHidden":{"rows":18,"cols":1,"matrix":[[0.9070770200853926],[-0.6559479172476931],[-1.0035266313382145],[0.005334455535590008],[1.1698481964028546],[-0.07262180624150806],[8.019732308642655e-8],[0.015641991183791042],[-0.0008671268436378637],[-0.046981647006656524],[-0.00013007758375064717],[0.32421720843093005],[-0.06766100046080376],[0.001729786731696815],[2.22833435298409],[0.0004747992325777878],[0.005755366407119623],[1.0808594442514181]]},"biasToOutput":{"rows":4,"cols":1,"matrix":[[-0.000011720296461549489],[0.033983340051193765],[0.004098608675956561],[-3.666126359246527]]},"learningRate":0.1},"instructions":[],"body":[{"x":800,"y":375,"size":25,"instructions":[[800,375,"L"]],"speedX":25,"speedY":0,"index1":32,"index2":15}],"size":25,"collide":true,"points":0,"apple":{"size":25,"x":0,"y":575,"index1":0,"index2":23},"traveledDistance":18,"moves":82,"map":{"rows":32,"cells":[[-10,-10,-10,-10,-10,-10,-10,-10,-10,-10,-10,-10,-10,-10,-10,-10,-10,-10,-10,-10,-10,-10,-10,-10,-10,-10,-10,-10,-10,-10,-10,-10],[-10,1,1,1,1,1,1,1,1,1,1,1,1,1,1,1,1,1,1,1,1,1,1,1,1,1,1,1,1,1,1,-10],[-10,1,1,1,1,1,1,1,1,1,1,1,1,1,1,1,1,1,1,1,1,1,1,1,1,1,1,1,1,1,1,-10],[-10,1,1,1,1,1,1,1,1,1,1,1,1,1,1,1,1,1,1,1,1,1,1,1,1,1,1,1,1,1,1,-10],[-10,1,1,1,1,1,1,1,1,1,1,1,1,1,1,1,1,1,1,1,1,1,1,1,1,1,1,1,1,1,1,-10],[-10,1,1,1,1,1,1,1,1,1,1,1,1,1,1,1,1,1,1,1,1,1,1,1,1,1,1,1,1,1,1,-10],[-10,1,1,1,1,1,1,1,1,1,1,1,1,1,1,1,1,1,1,1,1,1,1,1,1,1,1,1,1,1,1,-10],[-10,1,1,1,1,1,1,1,1,1,1,1,1,1,1,1,1,1,1,1,1,1,1,1,1,1,1,1,1,1,1,-10],[-10,1,1,1,1,1,1,1,1,1,1,1,1,1,1,1,1,1,1,1,1,1,1,1,1,1,1,1,1,1,1,-10],[-10,1,1,1,1,1,1,1,1,1,1,1,1,1,1,1,1,1,1,1,1,1,1,1,1,1,1,1,1,1,1,-10],[-10,1,1,1,1,1,1,1,1,1,1,1,1,1,1,1,1,1,1,1,1,1,1,1,1,1,1,1,1,1,1,-10],[-10,1,1,1,1,1,1,1,1,1,1,1,1,1,1,1,1,1,1,1,1,1,1,1,1,1,1,1,1,1,1,-10],[-10,1,1,1,1,1,1,1,1,1,1,1,1,1,1,1,1,1,1,1,1,1,1,1,1,1,1,1,1,1,1,-10],[-10,1,1,1,1,1,1,1,1,1,1,1,1,1,1,1,1,1,1,1,1,1,1,1,1,1,1,1,1,1,1,-10],[-10,1,1,1,1,1,1,1,1,1,1,1,1,1,1,1,1,1,1,1,1,1,1,1,1,1,1,1,1,1,1,-10],[-10,1,1,1,1,1,1,1,1,1,1,1,1,1,1,1,1,1,1,1,1,1,1,1,1,1,1,1,1,1,1,-10],[-10,1,1,1,1,1,1,1,1,1,1,1,1,1,1,1,1,1,1,1,1,1,1,1,1,1,1,1,1,1,1,-10],[-10,1,1,1,1,1,1,1,1,1,1,1,1,1,1,1,1,1,1,1,1,1,1,1,1,1,1,1,1,1,1,-10],[-10,1,1,1,1,1,1,1,1,1,1,1,1,1,1,1,1,1,1,1,1,1,1,1,1,1,1,1,1,1,1,-10],[-10,1,1,1,1,1,1,1,1,1,1,1,1,1,1,1,1,1,1,1,1,1,1,1,1,1,1,1,1,1,1,-10],[-10,1,1,1,1,1,1,1,1,1,1,1,1,1,1,1,1,1,1,1,1,1,1,1,1,1,1,1,1,1,1,-10],[-10,1,1,1,1,1,1,1,1,1,1,1,1,1,1,1,1,1,1,1,1,1,1,1,1,1,1,1,1,1,1,-10],[-10,1,1,1,1,1,1,1,1,1,1,1,1,1,1,1,1,1,1,1,1,1,1,1,1,1,1,1,1,1,1,-10],[-10,1,1,1,1,1,1,1,1,1,1,1,1,1,1,1,1,1,1,1,1,1,1,1,1,1,1,1,1,1,1,-10],[-10,1,1,1,1,1,1,1,1,1,1,1,1,1,1,1,1,1,1,1,1,1,1,1,1,1,1,1,1,1,1,-10],[-10,1,1,1,1,1,1,1,1,1,1,1,1,1,1,1,1,1,1,1,1,1,1,1,1,1,1,1,1,1,1,-10],[-10,1,1,1,1,1,1,1,1,1,1,1,1,1,1,1,1,1,1,1,1,1,1,1,1,1,1,1,1,1,1,-10],[-10,1,1,1,1,1,1,1,1,1,1,1,1,1,1,1,1,1,1,1,1,1,1,1,1,1,1,1,1,1,1,-10],[-10,1,1,1,1,1,1,1,1,1,1,1,1,1,1,1,1,1,1,1,1,1,1,1,1,1,1,1,1,1,1,-10],[-10,1,1,1,1,1,1,1,1,1,1,1,1,1,1,1,1,1,1,1,1,1,1,1,1,1,1,1,1,1,1,-10],[-10,1,1,1,1,1,1,1,1,1,1,1,1,1,1,1,1,1,1,1,1,1,1,1,1,1,1,1,1,1,1,-10],[-10,-10,-10,-10,-10,-10,-10,-10,-10,-10,-10,-10,-10,-10,-10,-10,-10,-10,-10,-10,-10,-10,-10,-10,-10,-10,-10,-10,-10,-10,-10,-10]]}},{"fitness":324,"brain":{"input_num":13,"hidden_num":18,"output_num":4,"hiddenLayers_num":1,"AdditionalHiddenLayers":[],"weightsToHidden":{"rows":18,"cols":13,"matrix":[[-0.011869289680310981,-0.000125668472600001,9.05065572016327,0.19932121609847425,-0.554472543903876,-1.0407560007739316,12.485828664795081,0.0000175739932522666,4.226383106881173,0.0003297877221609359,-0.000057897663346680284,0.08037611527901403,0.05371754204839026],[1.3776719646027347,0.0005278934205186079,-7.095331828767209,0.12293227850408497,0.00009683659792083889,-1.4555250590022988,11.783388423824768,-0.000006080867234694018,0.0003384895268846641,0.1086136601630687,1.064774575859149,0.00014306253831991055,0.7362648856803007],[-0.5582737366333864,-0.6054352467184967,-0.003209423403034549,-0.000034227033369795855,-0.000010177317896247338,70.33865671715506,15.850835895396731,0.04188989503791417,0.00008867074438161374,-1.644367078926087,-0.00038116906066000924,-0.015509396461773031,1.616669639688753],[-3.3479096640689425,0.00013021763240934436,-0.050919367934127886,-22.449996055274763,0.0034071932332649375,0.1067489177827094,0.023394634658676233,0.000001239500453339912,-1.9194824275987372,0.04018111021656046,0.001894233356970836,-4.213561976933316,0.0000013089546343371452],[0.08366684277730678,-0.0016537127984573986,-0.0956987810049396,-0.5649531336048731,-0.00016582151739641664,0.6500030986527192,0.00016262232077873494,0.0009600304351218418,2.633955629843019e-13,0.020028829752150992,-0.1880984266590007,-52.65591559678444,0.012660718554527873],[-9.976473991074709,-0.06800478140153665,0.002601658903851566,-0.1124982321617101,0.11567685677377061,0.002287816358751733,-0.033221824085301714,13.388382189057054,0.00007217144312402827,-4.987183638776892e-7,2.5142651540437226,0.07093150629715557,-0.392846417248525],[-11.886047660962737,-0.000001976210790553614,0.000024569699821245246,-7.78278145819866,-0.11571447672398914,-0.00008438195574994437,-0.01316933697966794,0.04884744998574819,-0.000007573619390685139,-1.3103445630798607,-0.0000021748500176238846,1.0980499216077049,0.0009683128666159399],[-0.2082025357825242,-0.16770851500652156,0.3651777213455941,0.024822111094506716,0.023871962181985333,0.002343379958420291,0.1582887133910545,0.018225104125655804,-0.013612199558140893,0.2571722844566501,-2.1578398067268005,-0.7831953454877834,0.21827977896592782],[0.26312212643668964,0.02454083391432991,7.15007302634428,0.0000023095267853695335,-0.0019021615581030812,-0.0005580159575044913,0.04283817878974848,4.91769220017831,277.6703897883372,0.014055879586001631,2.55779284565311,0.002748214626609756,-0.018356541157419956],[-0.0003394345988348696,0.0013496414796034825,0.0006806706842832319,-0.00003607937717670355,0.0002890320255811631,0.02587388401308336,0.0033909947665272124,0.00019024383320774053,-2.2347532345978395e-7,-17.487244188327427,0.1310207317803128,-0.0001415167616159511,0.20480598093615449],[-45.87900766700175,-0.000059039092678613056,1.4929997995415623,-0.015833963047646796,-0.000039174130586011684,-0.009048916260711888,-0.13737051982950976,-0.010245136389648501,-0.0006858624164174124,5.967650935211543e-7,-0.04637269350379545,0.019847033104971414,0.114226106918292],[-0.4600812843785991,0.0008618194612414257,58.74816320925759,-0.000271566155925762,0.062333148641804635,-0.00019814981167434314,-0.0009587214280176454,-0.0004420846665017745,0.014634278848920467,0.0003494483235196928,0.00005617259162848464,-0.9056389669236018,-0.00009552704821730703],[-0.003394844506922797,0.000005499701805571841,0.006541081962832269,0.009933234651372242,0.6163046943951838,-0.00015014196509607232,0.0005586079479372742,0.2027129292576063,0.6016575568229815,-37.37910967339116,0.0029063967926387445,-0.07087604210454303,9.14119494391045],[-0.00003912487376713378,0.0007896242394044364,-0.01636323450611711,-51.62133420995748,0.06513741742198052,-0.0006986074745771621,0.03907674261065966,2.539895323990332,-0.000043937034114893076,-0.0005641962851469779,1.0245540553457582,-1.1394894419566826,-1.1422838151611545],[-0.00982689459076302,-0.12121927434029366,-0.000021940648696436967,-0.012105271765915589,-0.000009135692321804154,-0.000010406417871077466,-0.009287232762056338,-0.0005132524585754259,-0.011910046294110117,-0.00011446337167057316,0.1199881513584351,0.000012273701665713217,-0.000009663420278071261],[-0.134149847788717,0.12501303003062347,-292.5024169579735,0.16093131096695318,0.046340473236867685,-1.371943960088744,0.004376825750472158,-0.0085338281763403,2.668516504519651,-0.00016198912586929692,0.0025690188942677017,0.00035763079476564485,0.08800023141559607],[0.000007238113783775004,0.0005130274616496422,0.00010256274630817189,0.03551117800243732,-0.00033385147746699175,-0.00021895064365368703,-0.0004115071640330588,0.003941065721198245,0.15724068753852263,-0.0016007891138407064,-0.16155376525095774,-0.0000017410474756674108,-5.590816989993112e-7],[-9.309714984116979e-7,-0.004809986772391321,49.850297174442034,0.03439171290380328,0.002153673364039207,0.0012832862505740594,0.00000580209556960269,0.03558028768833548,-0.00004826333747874479,-0.1910460517684938,0.03149965213104321,-0.09967676629275754,-2.2027362920905684]]},"weightsToOutput":{"rows":4,"cols":18,"matrix":[[-5.263532202228346e-10,0.1865343993988049,-39.948370741515895,50.96246383789273,-0.3813851553253763,-0.00016391817162705438,0.0003239509371998843,-0.3492862220698641,0.004259561320031147,0.14348848988893514,3.6086699748931523,-0.054049802513906606,-0.053415786070324836,-0.46538585322218873,-1.356579067734783,0.011719726109908955,0.00025645517827802564,-0.00005889114969957046],[-1.4890057908668062,5.1078015242454915e-9,-0.006588185910209632,0.056031525353102594,0.028691985137651213,0.000002162284466273054,0.047213601569988425,-0.007916206620376592,0.003222554423109224,-0.0060843465237418615,-0.000006834722258973507,0.0000015219926112150028,0.0000037322123152793167,0.20665491207306833,-0.018907219392853142,-0.9170167622176425,-0.003978407275641013,0.02243246552069915],[0.6685363939001616,0.0000991813938198683,1.3676001341076722,-0.0037223512035607542,-0.01956004939418966,0.0001851742919892519,-0.0026935318381358046,-0.0011178165601743461,-0.07854657984635918,-0.000004666225380800266,0.022432966326928778,-0.00013529915582163716,0.003922928005661704,11.082785443853867,0.032577216345913027,0.005803689735901791,-3.3160033971703093,-3.091466720782847],[-1.2632624207200338,-0.8516073026054405,0.0010699205228902676,-0.03210105187013492,-0.0224962971946263,-0.00015482644314417129,0.00008324216150620769,0.0007511069164102457,0.0005193705676272745,0.2946657887693499,-1.207843045397872,0.025334519726091145,-0.3872108692583158,-0.011211417834629566,-0.09175553372647952,-10.226332285110397,0.004607646787276922,6.002718580661118]]},"biasToHidden":{"rows":18,"cols":1,"matrix":[[-1.4865495266603599],[-0.8520890783326818],[-2.2798692388346646],[0.005334455535590008],[1.1698481964028546],[-0.07262180624150806],[8.019732308642655e-8],[0.015641991183791042],[-0.0008671268436378637],[-0.046981647006656524],[-0.00013007758375064717],[0.32421720843093005],[-0.06766100046080376],[0.0009815504086687112],[2.22833435298409],[0.0004747992325777878],[0.005755366407119623],[1.0808594442514181]]},"biasToOutput":{"rows":4,"cols":1,"matrix":[[0.00015898719253797358],[0.033983340051193765],[0.004098608675956561],[-3.666126359246527]]},"learningRate":0.1},"instructions":[],"body":[{"x":800,"y":375,"size":25,"instructions":[[800,375,"L"]],"speedX":25,"speedY":0,"index1":32,"index2":15}],"size":25,"collide":true,"points":0,"apple":{"size":25,"x":250,"y":275,"index1":10,"index2":11},"traveledDistance":18,"moves":82,"map":{"rows":32,"cells":[[-10,-10,-10,-10,-10,-10,-10,-10,-10,-10,-10,-10,-10,-10,-10,-10,-10,-10,-10,-10,-10,-10,-10,-10,-10,-10,-10,-10,-10,-10,-10,-10],[-10,1,1,1,1,1,1,1,1,1,1,1,1,1,1,1,1,1,1,1,1,1,1,1,1,1,1,1,1,1,1,-10],[-10,1,1,1,1,1,1,1,1,1,1,1,1,1,1,1,1,1,1,1,1,1,1,1,1,1,1,1,1,1,1,-10],[-10,1,1,1,1,1,1,1,1,1,1,1,1,1,1,1,1,1,1,1,1,1,1,1,1,1,1,1,1,1,1,-10],[-10,1,1,1,1,1,1,1,1,1,1,1,1,1,1,1,1,1,1,1,1,1,1,1,1,1,1,1,1,1,1,-10],[-10,1,1,1,1,1,1,1,1,1,1,1,1,1,1,1,1,1,1,1,1,1,1,1,1,1,1,1,1,1,1,-10],[-10,1,1,1,1,1,1,1,1,1,1,1,1,1,1,1,1,1,1,1,1,1,1,1,1,1,1,1,1,1,1,-10],[-10,1,1,1,1,1,1,1,1,1,1,1,1,1,1,1,1,1,1,1,1,1,1,1,1,1,1,1,1,1,1,-10],[-10,1,1,1,1,1,1,1,1,1,1,1,1,1,1,1,1,1,1,1,1,1,1,1,1,1,1,1,1,1,1,-10],[-10,1,1,1,1,1,1,1,1,1,5,5,5,1,1,1,1,1,1,1,1,1,1,1,1,1,1,1,1,1,1,-10],[-10,1,1,1,1,1,1,1,1,1,5,10,5,1,1,1,1,1,1,1,1,1,1,1,1,1,1,1,1,1,1,-10],[-10,1,1,1,1,1,1,1,1,1,5,5,5,1,1,1,1,1,1,1,1,1,1,1,1,1,1,1,1,1,1,-10],[-10,1,1,1,1,1,1,1,1,1,1,1,1,1,1,1,1,1,1,1,1,1,1,1,1,1,1,1,1,1,1,-10],[-10,1,1,1,1,1,1,1,1,1,1,1,1,1,1,1,1,1,1,1,1,1,1,1,1,1,1,1,1,1,1,-10],[-10,1,1,1,1,1,1,1,1,1,1,1,1,1,1,1,1,1,1,1,1,1,1,1,1,1,1,1,1,1,1,-10],[-10,1,1,1,1,1,1,1,1,1,1,1,1,1,1,1,1,1,1,1,1,1,1,1,1,1,1,1,1,1,1,-10],[-10,1,1,1,1,1,1,1,1,1,1,1,1,1,1,1,1,1,1,1,1,1,1,1,1,1,1,1,1,1,1,-10],[-10,1,1,1,1,1,1,1,1,1,1,1,1,1,1,1,1,1,1,1,1,1,1,1,1,1,1,1,1,1,1,-10],[-10,1,1,1,1,1,1,1,1,1,1,1,1,1,1,1,1,1,1,1,1,1,1,1,1,1,1,1,1,1,1,-10],[-10,1,1,1,1,1,1,1,1,1,1,1,1,1,1,1,1,1,1,1,1,1,1,1,1,1,1,1,1,1,1,-10],[-10,1,1,1,1,1,1,1,1,1,1,1,1,1,1,1,1,1,1,1,1,1,1,1,1,1,1,1,1,1,1,-10],[-10,1,1,1,1,1,1,1,1,1,1,1,1,1,1,1,1,1,1,1,1,1,1,1,1,1,1,1,1,1,1,-10],[-10,1,1,1,1,1,1,1,1,1,1,1,1,1,1,1,1,1,1,1,1,1,1,1,1,1,1,1,1,1,1,-10],[-10,1,1,1,1,1,1,1,1,1,1,1,1,1,1,1,1,1,1,1,1,1,1,1,1,1,1,1,1,1,1,-10],[-10,1,1,1,1,1,1,1,1,1,1,1,1,1,1,1,1,1,1,1,1,1,1,1,1,1,1,1,1,1,1,-10],[-10,1,1,1,1,1,1,1,1,1,1,1,1,1,1,1,1,1,1,1,1,1,1,1,1,1,1,1,1,1,1,-10],[-10,1,1,1,1,1,1,1,1,1,1,1,1,1,1,1,1,1,1,1,1,1,1,1,1,1,1,1,1,1,1,-10],[-10,1,1,1,1,1,1,1,1,1,1,1,1,1,1,1,1,1,1,1,1,1,1,1,1,1,1,1,1,1,1,-10],[-10,1,1,1,1,1,1,1,1,1,1,1,1,1,1,1,1,1,1,1,1,1,1,1,1,1,1,1,1,1,1,-10],[-10,1,1,1,1,1,1,1,1,1,1,1,1,1,1,1,1,1,1,1,1,1,1,1,1,1,1,1,1,1,1,-10],[-10,1,1,1,1,1,1,1,1,1,1,1,1,1,1,1,1,1,1,1,1,1,1,1,1,1,1,1,1,1,1,-10],[-10,-10,-10,-10,-10,-10,-10,-10,-10,-10,-10,-10,-10,-10,-10,-10,-10,-10,-10,-10,-10,-10,-10,-10,-10,-10,-10,-10,-10,-10,-10,-10]]}},{"fitness":324,"brain":{"input_num":13,"hidden_num":18,"output_num":4,"hiddenLayers_num":1,"AdditionalHiddenLayers":[],"weightsToHidden":{"rows":18,"cols":13,"matrix":[[-0.0009404980267082891,-0.00010057497631371724,1.7315037420708883,0.210607505649765,-0.2730004146117997,-0.5682006935249242,12.485828664795081,-0.0001473503811379119,4.226383106881173,0.00039429591037319465,-0.0001754857606215024,-4.530905544379354,0.05371754204839026],[1.3776719646027347,0.001252318919573013,-7.095331828767209,0.29771795156927416,0.00014298563343842946,-2.099712370161501,6.761664101567682,-0.000006080867234694018,0.0003384895268846641,0.013830871670907718,1.064774575859149,0.00014306253831991055,0.49190023248469117],[-0.5582737366333864,-1.0324674024059737,-0.003209423403034549,-0.000034227033369795855,-0.00032450614575879204,70.33865671715506,11.988987974168278,0.00014566157746298447,0.00008867074438161374,-1.644367078926087,-0.00033541014235157873,-0.01489917438142079,1.616669639688753],[-3.3479096640689425,0.00018601595261459724,-0.12967160339232223,-66.31518394864187,0.0004927863147974145,0.23789857057178176,0.023394634658676233,0.0000016313471723988928,-1.9194824275987372,-0.09612085619166608,0.004721821466885411,-4.213561976933316,-0.0003202250573249111],[-0.03688549741736446,-0.0016537127984573986,-0.05574816243969392,-0.19333235522270267,-0.007598150132770367,0.4245707666868755,0.00016262232077873494,0.0006726288961466884,-6.46165047659574e-12,0.0231575015073015,-0.3476362448278662,-87.37373632329324,0.012660718554527873],[-9.976473991074709,-0.06800478140153665,0.002601658903851566,-0.05393742929109078,0.11567685677377061,0.002287816358751733,-0.033221824085301714,13.388382189057054,0.0000315665868171187,-4.987183638776892e-7,2.5142651540437226,0.07093150629715557,-0.392846417248525],[-11.886047660962737,-0.000001976210790553614,0.000016797858512614798,-7.78278145819866,-0.11571447672398914,-0.000037695910657542136,-0.01316933697966794,0.04884744998574819,-0.000007573619390685139,-2.5762594964177765,-0.0000021748500176238846,1.0980499216077049,0.0009683128666159399],[-0.2082025357825242,-0.16770851500652156,-5.395634287006904,0.024822111094506716,0.023871962181985333,0.002343379958420291,0.1582887133910545,0.018225104125655804,-0.02730555923204747,-0.060676714832724875,-2.1578398067268005,-0.7831953454877834,0.21827977896592782],[0.26312212643668964,0.02454083391432991,7.15007302634428,0.000003932006911197681,-0.0019021615581030812,-0.0005580159575044913,-0.015670624236279185,4.91769220017831,277.6703897883372,0.014055879586001631,2.55779284565311,0.002748214626609756,-0.009587247492081745],[-0.0003394345988348696,0.0006187187626689926,0.0006806706842832319,-0.00003607937717670355,0.0002890320255811631,0.02353476559074423,0.0033909947665272124,0.00019024383320774053,-2.2347532345978395e-7,-17.487244188327427,0.1310207317803128,-0.0001415167616159511,0.20480598093615449],[-45.87900766700175,-0.000059039092678613056,1.4929997995415623,-0.015833963047646796,-0.000039174130586011684,-0.009048916260711888,-0.13737051982950976,-0.010245136389648501,-0.0006858624164174124,5.967650935211543e-7,-0.04637269350379545,0.019847033104971414,0.114226106918292],[-0.05813581899180603,0.0008618194612414257,58.74816320925759,-0.000271566155925762,0.08136351963052456,-0.00019814981167434314,-0.0013320293506329688,-0.0004420846665017745,0.014634278848920467,0.0003494483235196928,0.00005617259162848464,-0.9056389669236018,-0.00009552704821730703],[-0.003394844506922797,0.000005499701805571841,0.006541081962832269,0.009933234651372242,0.6163046943951838,-0.00015014196509607232,0.0005586079479372742,0.2027129292576063,0.6016575568229815,-14.075520124667413,0.0029063967926387445,-0.07087604210454303,9.14119494391045],[-0.00003912487376713378,0.0007896242394044364,-0.01636323450611711,-51.62133420995748,0.06513741742198052,-0.0006986074745771621,0.03907674261065966,2.539895323990332,-0.000043937034114893076,-0.0005641962851469779,0.15123531234259685,-1.1394894419566826,-1.1422838151611545],[-0.00982689459076302,-0.12121927434029366,-0.000021940648696436967,-0.012105271765915589,-0.000009135692321804154,-0.000010406417871077466,-0.011672052155542295,0.0001282801499983214,-0.0035652714288365865,-0.00011446337167057316,0.1199881513584351,0.000012273701665713217,-0.000009663420278071261],[-0.0873141686033713,0.12501303003062347,-292.5024169579735,0.07994367474953272,-0.0776037679633934,-1.371943960088744,0.004376825750472158,-0.01892875199444652,2.668516504519651,-0.0001700198158719022,0.0025690188942677017,0.00035763079476564485,0.08800023141559607],[0.000007238113783775004,0.00018689619921456477,0.00010256274630817189,0.04506721397296535,-0.0006760239339768239,-0.00021895064365368703,-0.0004115071640330588,0.005670477018202548,0.10027303807687227,-0.0016007891138407064,-0.16155376525095774,-0.0000017410474756674108,-5.590816989993112e-7],[-0.000002379567751305631,-0.004809986772391321,49.850297174442034,0.015163909159682078,0.002153673364039207,0.0012832862505740594,0.00000580209556960269,0.06948884283404955,-0.00004826333747874479,-0.050313597551816976,0.03149965213104321,-0.10507139004270268,-2.2027362920905684]]},"weightsToOutput":{"rows":4,"cols":18,"matrix":[[-5.263532202228346e-10,0.08674957729596455,-39.948370741515895,50.96246383789273,-0.3813851553253763,-0.0016957435900319825,0.0003239509371998843,-0.3492862220698641,0.002101544816364306,0.10676181591039022,3.6086699748931523,-0.09620468821163974,-0.053415786070324836,-0.46538585322218873,-1.356579067734783,0.011719726109908955,0.00032661142459697713,-0.00005889114969957046],[-0.6947051527103368,5.1078015242454915e-9,-0.006588185910209632,0.056031525353102594,0.028691985137651213,0.000002162284466273054,0.047213601569988425,-0.007916206620376592,0.003222554423109224,-0.0060843465237418615,-0.000006834722258973507,0.0000015219926112150028,0.0000037322123152793167,-0.2806196203552435,-0.018907219392853142,-0.9170167622176425,-0.0022868112874819806,0.02243246552069915],[0.6685363939001616,0.0000991813938198683,1.3676001341076722,-0.0037223512035607542,-0.01956004939418966,-0.00028750384447728686,-0.0026935318381358046,-0.0011178165601743461,-0.19349947555956978,-0.000004666225380800266,0.009023074309084096,-0.00013529915582163716,0.003922928005661704,15.681759148690578,0.032577216345913027,0.005803689735901791,-3.3160033971703093,-3.091466720782847],[-1.2632624207200338,-0.8516073026054405,0.0006830511365117643,-0.0448711393227762,-0.04910249694277532,-0.00019419005312399095,-0.00014152248836000637,0.0007511069164102457,0.0005193705676272745,0.2946657887693499,-1.2065177291084002,0.025334519726091145,-0.3872108692583158,-0.011211417834629566,-0.11661725382179995,-10.226332285110397,0.004607646787276922,6.002718580661118]]},"biasToHidden":{"rows":18,"cols":1,"matrix":[[-0.9296463563070001],[-0.6559479172476931],[-1.0035266313382145],[-0.000624544705273243],[1.1698481964028546],[-0.07262180624150806],[8.019732308642655e-8],[0.015641991183791042],[-0.0008671268436378637],[-0.046981647006656524],[-0.00013007758375064717],[0.32421720843093005],[-0.06766100046080376],[0.0009815504086687112],[2.22833435298409],[0.0004747992325777878],[0.005755366407119623],[1.0808594442514181]]},"biasToOutput":{"rows":4,"cols":1,"matrix":[[0.00015898719253797358],[0.033983340051193765],[0.004098608675956561],[-7.367969805990813]]},"learningRate":0.1},"instructions":[],"body":[{"x":375,"y":800,"size":25,"instructions":[[375,800,"L"]],"speedX":0,"speedY":25,"index1":15,"index2":32}],"size":25,"collide":true,"points":0,"apple":{"size":25,"x":725,"y":625,"index1":29,"index2":25},"traveledDistance":18,"moves":82,"map":{"rows":32,"cells":[[-10,-10,-10,-10,-10,-10,-10,-10,-10,-10,-10,-10,-10,-10,-10,-10,-10,-10,-10,-10,-10,-10,-10,-10,-10,-10,-10,-10,-10,-10,-10,-10],[-10,1,1,1,1,1,1,1,1,1,1,1,1,1,1,1,1,1,1,1,1,1,1,1,1,1,1,1,1,1,1,-10],[-10,1,1,1,1,1,1,1,1,1,1,1,1,1,1,1,1,1,1,1,1,1,1,1,1,1,1,1,1,1,1,-10],[-10,1,1,1,1,1,1,1,1,1,1,1,1,1,1,1,1,1,1,1,1,1,1,1,1,1,1,1,1,1,1,-10],[-10,1,1,1,1,1,1,1,1,1,1,1,1,1,1,1,1,1,1,1,1,1,1,1,1,1,1,1,1,1,1,-10],[-10,1,1,1,1,1,1,1,1,1,1,1,1,1,1,1,1,1,1,1,1,1,1,1,1,1,1,1,1,1,1,-10],[-10,1,1,1,1,1,1,1,1,1,1,1,1,1,1,1,1,1,1,1,1,1,1,1,1,1,1,1,1,1,1,-10],[-10,1,1,1,1,1,1,1,1,1,1,1,1,1,1,1,1,1,1,1,1,1,1,1,1,1,1,1,1,1,1,-10],[-10,1,1,1,1,1,1,1,1,1,1,1,1,1,1,1,1,1,1,1,1,1,1,1,1,1,1,1,1,1,1,-10],[-10,1,1,1,1,1,1,1,1,1,1,1,1,1,1,1,1,1,1,1,1,1,1,1,1,1,1,1,1,1,1,-10],[-10,1,1,1,1,1,1,1,1,1,1,1,1,1,1,1,1,1,1,1,1,1,1,1,1,1,1,1,1,1,1,-10],[-10,1,1,1,1,1,1,1,1,1,1,1,1,1,1,1,1,1,1,1,1,1,1,1,1,1,1,1,1,1,1,-10],[-10,1,1,1,1,1,1,1,1,1,1,1,1,1,1,1,1,1,1,1,1,1,1,1,1,1,1,1,1,1,1,-10],[-10,1,1,1,1,1,1,1,1,1,1,1,1,1,1,1,1,1,1,1,1,1,1,1,1,1,1,1,1,1,1,-10],[-10,1,1,1,1,1,1,1,1,1,1,1,1,1,1,1,1,1,1,1,1,1,1,1,1,1,1,1,1,1,1,-10],[-10,1,1,1,1,1,1,1,1,1,1,1,1,1,1,1,1,1,1,1,1,1,1,1,1,1,1,1,1,1,1,-10,-10],[-10,1,1,1,1,1,1,1,1,1,1,1,1,1,1,1,1,1,1,1,1,1,1,1,1,1,1,1,1,1,1,-10],[-10,1,1,1,1,1,1,1,1,1,1,1,1,1,1,1,1,1,1,1,1,1,1,1,1,1,1,1,1,1,1,-10],[-10,1,1,1,1,1,1,1,1,1,1,1,1,1,1,1,1,1,1,1,1,1,1,1,1,1,1,1,1,1,1,-10],[-10,1,1,1,1,1,1,1,1,1,1,1,1,1,1,1,1,1,1,1,1,1,1,1,1,1,1,1,1,1,1,-10],[-10,1,1,1,1,1,1,1,1,1,1,1,1,1,1,1,1,1,1,1,1,1,1,1,1,1,1,1,1,1,1,-10],[-10,1,1,1,1,1,1,1,1,1,1,1,1,1,1,1,1,1,1,1,1,1,1,1,1,1,1,1,1,1,1,-10],[-10,1,1,1,1,1,1,1,1,1,1,1,1,1,1,1,1,1,1,1,1,1,1,1,1,1,1,1,1,1,1,-10],[-10,1,1,1,1,1,1,1,1,1,1,1,1,1,1,1,1,1,1,1,1,1,1,1,1,1,1,1,1,1,1,-10],[-10,1,1,1,1,1,1,1,1,1,1,1,1,1,1,1,1,1,1,1,1,1,1,1,1,1,1,1,1,1,1,-10],[-10,1,1,1,1,1,1,1,1,1,1,1,1,1,1,1,1,1,1,1,1,1,1,1,1,1,1,1,1,1,1,-10],[-10,1,1,1,1,1,1,1,1,1,1,1,1,1,1,1,1,1,1,1,1,1,1,1,1,1,1,1,1,1,1,-10],[-10,1,1,1,1,1,1,1,1,1,1,1,1,1,1,1,1,1,1,1,1,1,1,1,1,1,1,1,1,1,1,-10],[-10,1,1,1,1,1,1,1,1,1,1,1,1,1,1,1,1,1,1,1,1,1,1,1,5,5,5,1,1,1,1,-10],[-10,1,1,1,1,1,1,1,1,1,1,1,1,1,1,1,1,1,1,1,1,1,1,1,5,10,5,1,1,1,1,-10],[-10,1,1,1,1,1,1,1,1,1,1,1,1,1,1,1,1,1,1,1,1,1,1,1,5,5,5,1,1,1,1,-10],[-10,-10,-10,-10,-10,-10,-10,-10,-10,-10,-10,-10,-10,-10,-10,-10,-10,-10,-10,-10,-10,-10,-10,-10,-10,-10,-10,-10,-10,-10,-10,-10]]}},{"fitness":324,"brain":{"input_num":13,"hidden_num":18,"output_num":4,"hiddenLayers_num":1,"AdditionalHiddenLayers":[],"weightsToHidden":{"rows":18,"cols":13,"matrix":[[-0.0009404980267082891,-0.00010057497631371724,12.642713028336749,0.210607505649765,-0.2730004146117997,-0.5682006935249242,-11.594577996825254,-0.0001473503811379119,4.226383106881173,0.00039429591037319465,-0.0001754857606215024,-4.530905544379354,0.05371754204839026],[1.3776719646027347,0.001252318919573013,-7.095331828767209,0.29771795156927416,0.00014298563343842946,-2.099712370161501,6.761664101567682,-0.000006080867234694018,0.0008870542595366402,0.028806171604744656,1.064774575859149,0.00014306253831991055,0.49190023248469117],[-0.5582737366333864,-1.0324674024059737,-0.003209423403034549,-0.000034227033369795855,-0.00032450614575879204,70.33865671715506,11.988987974168278,0.00014566157746298447,0.00008867074438161374,-1.644367078926087,-0.00033541014235157873,-0.01489917438142079,1.616669639688753],[-3.3479096640689425,0.00018601595261459724,-0.12967160339232223,-66.31518394864187,0.0004927863147974145,0.23789857057178176,0.023394634658676233,0.0000016313471723988928,-1.9194824275987372,-0.09612085619166608,0.004721821466885411,-4.213561976933316,-0.0003202250573249111],[-0.026151571505370015,-0.0016537127984573986,-0.05574816243969392,-0.19333235522270267,-0.007598150132770367,0.4245707666868755,0.00016262232077873494,0.0006726288961466884,-6.46165047659574e-12,0.0231575015073015,-0.27595818553730084,-87.37373632329324,0.012660718554527873],[-9.976473991074709,-0.06800478140153665,0.004914975039980382,-0.05393742929109078,0.11567685677377061,0.002287816358751733,-0.033221824085301714,13.388382189057054,0.0000315665868171187,-4.987183638776892e-7,2.5142651540437226,0.07093150629715557,-0.392846417248525],[-11.886047660962737,-0.000001976210790553614,0.000016797858512614798,-7.78278145819866,-0.11571447672398914,-0.000037695910657542136,-0.01316933697966794,0.04884744998574819,-0.000007573619390685139,-2.5762594964177765,-0.0000021748500176238846,1.0980499216077049,0.0009683128666159399],[-0.2082025357825242,-0.16770851500652156,-5.395634287006904,0.024822111094506716,0.023871962181985333,0.002343379958420291,0.1582887133910545,0.018225104125655804,-0.02730555923204747,-0.060676714832724875,-2.1578398067268005,-0.7831953454877834,0.21827977896592782],[0.26312212643668964,0.02454083391432991,7.15007302634428,0.000003932006911197681,-0.0019021615581030812,-0.0005580159575044913,-0.015670624236279185,4.91769220017831,277.6703897883372,0.014055879586001631,2.55779284565311,0.002748214626609756,-0.009587247492081745],[-0.0003394345988348696,0.0013496414796034825,0.0006806706842832319,-0.00003607937717670355,0.0002890320255811631,0.02353476559074423,0.0033909947665272124,0.00019024383320774053,-2.2347532345978395e-7,-17.487244188327427,0.1310207317803128,-0.0001415167616159511,0.20480598093615449],[-45.87900766700175,-0.000029355204120153566,1.4929997995415623,-0.015833963047646796,-0.000039174130586011684,-0.003716965572194345,-0.13737051982950976,-0.010245136389648501,-0.0006858624164174124,5.967650935211543e-7,-0.04637269350379545,0.019847033104971414,0.114226106918292],[-0.9103926909649835,0.0008618194612414257,58.74816320925759,-0.000271566155925762,0.02766627599362188,-0.00019814981167434314,-0.0013320293506329688,-0.0009662419473091059,0.020664724076402678,0.0003494483235196928,0.00005617259162848464,-0.9056389669236018,-0.00009552704821730703],[-0.003394844506922797,0.000010072096458620042,0.006541081962832269,0.00022128265159852075,0.6163046943951838,-0.00015014196509607232,0.0005586079479372742,0.2027129292576063,1.2333073962148307,-37.37910967339116,0.0029063967926387445,-0.07087604210454303,9.14119494391045],[-0.00003912487376713378,0.0007896242394044364,-0.01636323450611711,-51.62133420995748,0.06513741742198052,-0.0006986074745771621,0.03907674261065966,2.539895323990332,-0.000043937034114893076,-0.0005641962851469779,1.0245540553457582,-1.1394894419566826,-1.1422838151611545],[-0.00982689459076302,-0.12121927434029366,-0.000021940648696436967,-0.012105271765915589,-0.000019451874366123193,-0.000010406417871077466,-0.009287232762056338,-0.0003954932970545316,-0.011910046294110117,-0.00011446337167057316,0.1199881513584351,0.000012273701665713217,-0.000009663420278071261],[-0.134149847788717,0.12501303003062347,-292.5024169579735,0.16093131096695318,0.046340473236867685,-1.371943960088744,0.004376825750472158,-0.0085338281763403,2.668516504519651,-0.0001700198158719022,0.0025690188942677017,0.00035763079476564485,0.08800023141559607],[0.000007238113783775004,0.0005130274616496422,0.00010256274630817189,0.03551117800243732,-0.00033385147746699175,-0.00021895064365368703,-0.0004115071640330588,0.003941065721198245,0.15724068753852263,-0.0016007891138407064,-0.16155376525095774,-0.0000017410474756674108,-5.590816989993112e-7],[-9.309714984116979e-7,-0.004809986772391321,49.850297174442034,0.03439171290380328,0.002153673364039207,0.0012832862505740594,0.00000580209556960269,0.03558028768833548,-0.00004826333747874479,-0.1910460517684938,0.03149965213104321,-0.10507139004270268,-0.38253534222037744]]},"weightsToOutput":{"rows":4,"cols":18,"matrix":[[-5.263532202228346e-10,0.08674957729596455,-39.948370741515895,50.96246383789273,-0.3813851553253763,-0.0016957435900319825,0.0003239509371998843,-0.3492862220698641,0.002101544816364306,0.10676181591039022,3.2618787942501353,-0.09620468821163974,-0.053415786070324836,-0.46538585322218873,-1.356579067734783,0.011719726109908955,0.00032661142459697713,-0.00005889114969957046],[-0.6947051527103368,-1.6678340911410492e-9,-0.006588185910209632,0.056031525353102594,0.028691985137651213,0.000002162284466273054,0.10255891026315171,-0.007916206620376592,0.003222554423109224,-0.0060843465237418615,-0.000006834722258973507,0.0000015219926112150028,0.0000037322123152793167,-0.2806196203552435,-0.018907219392853142,-0.9170167622176425,-0.0022868112874819806,0.02243246552069915],[0.6685363939001616,0.0000991813938198683,1.3676001341076722,-0.0037223512035607542,-0.01956004939418966,-0.00028750384447728686,-0.002699951893082724,-0.0011178165601743461,-0.04976660222381828,-0.0000024426771180685276,0.009023074309084096,0.0015548725433616962,0.003922928005661704,15.681759148690578,0.032577216345913027,0.005803689735901791,-7.262576786669767,-3.091466720782847],[-1.2632624207200338,-0.8516073026054405,0.0010699205228902676,-0.014143489140150196,-0.0224962971946263,-0.00015482644314417129,0.00008324216150620769,0.0007511069164102457,0.0005193705676272745,0.2946657887693499,-1.207843045397872,0.025334519726091145,0.08159125519811077,-0.011211417834629566,-0.08104159145570469,-10.226332285110397,0.004607646787276922,6.002718580661118]]},"biasToHidden":{"rows":18,"cols":1,"matrix":[[-2.1337757597354887],[-0.6559479172476931],[-1.0035266313382145],[0.005334455535590008],[1.1698481964028546],[-0.07262180624150806],[8.019732308642655e-8],[0.015641991183791042],[-0.000695447300161745],[-0.046981647006656524],[-0.00013007758375064717],[0.32421720843093005],[-0.01818025818270397],[-0.0003685704202551614],[2.22833435298409],[0.0004747992325777878],[0.005755366407119623],[1.0808594442514181]]},"biasToOutput":{"rows":4,"cols":1,"matrix":[[0.00015898719253797358],[0.033983340051193765],[0.004098608675956561],[-3.666126359246527]]},"learningRate":0.1},"instructions":[],"body":[{"x":800,"y":375,"size":25,"instructions":[[800,375,"D"]],"speedX":25,"speedY":0,"index1":32,"index2":15}],"size":25,"collide":true,"points":0,"apple":{"size":25,"x":425,"y":575,"index1":17,"index2":23},"traveledDistance":18,"moves":82,"map":{"rows":32,"cells":[[-10,-10,-10,-10,-10,-10,-10,-10,-10,-10,-10,-10,-10,-10,-10,-10,-10,-10,-10,-10,-10,-10,-10,-10,-10,-10,-10,-10,-10,-10,-10,-10],[-10,1,1,1,1,1,1,1,1,1,1,1,1,1,1,1,1,1,1,1,1,1,1,1,1,1,1,1,1,1,1,-10],[-10,1,1,1,1,1,1,1,1,1,1,1,1,1,1,1,1,1,1,1,1,1,1,1,1,1,1,1,1,1,1,-10],[-10,1,1,1,1,1,1,1,1,1,1,1,1,1,1,1,1,1,1,1,1,1,1,1,1,1,1,1,1,1,1,-10],[-10,1,1,1,1,1,1,1,1,1,1,1,1,1,1,1,1,1,1,1,1,1,1,1,1,1,1,1,1,1,1,-10],[-10,1,1,1,1,1,1,1,1,1,1,1,1,1,1,1,1,1,1,1,1,1,1,1,1,1,1,1,1,1,1,-10],[-10,1,1,1,1,1,1,1,1,1,1,1,1,1,1,1,1,1,1,1,1,1,1,1,1,1,1,1,1,1,1,-10],[-10,1,1,1,1,1,1,1,1,1,1,1,1,1,1,1,1,1,1,1,1,1,1,1,1,1,1,1,1,1,1,-10],[-10,1,1,1,1,1,1,1,1,1,1,1,1,1,1,1,1,1,1,1,1,1,1,1,1,1,1,1,1,1,1,-10],[-10,1,1,1,1,1,1,1,1,1,1,1,1,1,1,1,1,1,1,1,1,1,1,1,1,1,1,1,1,1,1,-10],[-10,1,1,1,1,1,1,1,1,1,1,1,1,1,1,1,1,1,1,1,1,1,1,1,1,1,1,1,1,1,1,-10],[-10,1,1,1,1,1,1,1,1,1,1,1,1,1,1,1,1,1,1,1,1,1,1,1,1,1,1,1,1,1,1,-10],[-10,1,1,1,1,1,1,1,1,1,1,1,1,1,1,1,1,1,1,1,1,1,1,1,1,1,1,1,1,1,1,-10],[-10,1,1,1,1,1,1,1,1,1,1,1,1,1,1,1,1,1,1,1,1,1,1,1,1,1,1,1,1,1,1,-10],[-10,1,1,1,1,1,1,1,1,1,1,1,1,1,1,1,1,1,1,1,1,1,1,1,1,1,1,1,1,1,1,-10],[-10,1,1,1,1,1,1,1,1,1,1,1,1,1,1,1,1,1,1,1,1,1,1,1,1,1,1,1,1,1,1,-10],[-10,1,1,1,1,1,1,1,1,1,1,1,1,1,1,1,1,1,1,1,1,1,5,5,5,1,1,1,1,1,1,-10],[-10,1,1,1,1,1,1,1,1,1,1,1,1,1,1,1,1,1,1,1,1,1,5,10,5,1,1,1,1,1,1,-10],[-10,1,1,1,1,1,1,1,1,1,1,1,1,1,1,1,1,1,1,1,1,1,5,5,5,1,1,1,1,1,1,-10],[-10,1,1,1,1,1,1,1,1,1,1,1,1,1,1,1,1,1,1,1,1,1,1,1,1,1,1,1,1,1,1,-10],[-10,1,1,1,1,1,1,1,1,1,1,1,1,1,1,1,1,1,1,1,1,1,1,1,1,1,1,1,1,1,1,-10],[-10,1,1,1,1,1,1,1,1,1,1,1,1,1,1,1,1,1,1,1,1,1,1,1,1,1,1,1,1,1,1,-10],[-10,1,1,1,1,1,1,1,1,1,1,1,1,1,1,1,1,1,1,1,1,1,1,1,1,1,1,1,1,1,1,-10],[-10,1,1,1,1,1,1,1,1,1,1,1,1,1,1,1,1,1,1,1,1,1,1,1,1,1,1,1,1,1,1,-10],[-10,1,1,1,1,1,1,1,1,1,1,1,1,1,1,1,1,1,1,1,1,1,1,1,1,1,1,1,1,1,1,-10],[-10,1,1,1,1,1,1,1,1,1,1,1,1,1,1,1,1,1,1,1,1,1,1,1,1,1,1,1,1,1,1,-10],[-10,1,1,1,1,1,1,1,1,1,1,1,1,1,1,1,1,1,1,1,1,1,1,1,1,1,1,1,1,1,1,-10],[-10,1,1,1,1,1,1,1,1,1,1,1,1,1,1,1,1,1,1,1,1,1,1,1,1,1,1,1,1,1,1,-10],[-10,1,1,1,1,1,1,1,1,1,1,1,1,1,1,1,1,1,1,1,1,1,1,1,1,1,1,1,1,1,1,-10],[-10,1,1,1,1,1,1,1,1,1,1,1,1,1,1,1,1,1,1,1,1,1,1,1,1,1,1,1,1,1,1,-10],[-10,1,1,1,1,1,1,1,1,1,1,1,1,1,1,1,1,1,1,1,1,1,1,1,1,1,1,1,1,1,1,-10],[-10,-10,-10,-10,-10,-10,-10,-10,-10,-10,-10,-10,-10,-10,-10,-10,-10,-10,-10,-10,-10,-10,-10,-10,-10,-10,-10,-10,-10,-10,-10,-10]]}},{"fitness":361,"brain":{"input_num":13,"hidden_num":18,"output_num":4,"hiddenLayers_num":1,"AdditionalHiddenLayers":[],"weightsToHidden":{"rows":18,"cols":13,"matrix":[[-0.019768551820814984,-0.0001776850391198893,9.05065572016327,0.19932121609847425,-0.554472543903876,-1.0407560007739316,12.485828664795081,-0.0001473503811379119,4.226383106881173,0.0003297877221609359,-0.000057897663346680284,0.10505180682273374,0.05371754204839026],[1.3776719646027347,0.0005278934205186079,-7.095331828767209,0.12293227850408497,0.00009683659792083889,-1.4555250590022988,11.783388423824768,-0.000006080867234694018,0.0003384895268846641,0.1086136601630687,1.064774575859149,0.00014306253831991055,0.7362648856803007],[-0.5582737366333864,-0.6054352467184967,-0.003209423403034549,-0.000034227033369795855,-0.000010177317896247338,70.33865671715506,15.850835895396731,0.04188989503791417,0.00008867074438161374,-1.644367078926087,-0.00038116906066000924,-0.015509396461773031,1.0294843810224443],[-3.3479096640689425,0.00013021763240934436,-0.050919367934127886,-22.449996055274763,0.0034071932332649375,0.1067489177827094,0.023394634658676233,0.000001239500453339912,-1.9194824275987372,0.04018111021656046,0.001894233356970836,-4.213561976933316,0.0000013089546343371452],[0.08366684277730678,-0.0016537127984573986,-0.0956987810049396,-0.5649531336048731,-0.0003046089603359034,0.6500030986527192,0.00016262232077873494,0.0006726288961466884,2.633955629843019e-13,0.020028829752150992,-0.1880984266590007,-52.65591559678444,0.012660718554527873],[-9.976473991074709,-0.06800478140153665,0.002601658903851566,-0.1124982321617101,0.11567685677377061,0.002287816358751733,-0.033221824085301714,13.388382189057054,0.000038028857291558166,-4.987183638776892e-7,2.5142651540437226,0.07093150629715557,-0.392846417248525],[-11.886047660962737,-0.000001976210790553614,0.000024569699821245246,-7.78278145819866,-0.11821848381103074,-0.00008438195574994437,-0.01316933697966794,0.04884744998574819,-0.000007573619390685139,-1.3103445630798607,-0.0000021748500176238846,1.0980499216077049,0.0009683128666159399],[-0.2082025357825242,-0.30606548814107987,0.3651777213455941,0.024822111094506716,0.023871962181985333,0.002343379958420291,0.1582887133910545,0.018225104125655804,-0.013612199558140893,0.2571722844566501,-2.1578398067268005,-0.7831953454877834,0.21827977896592782],[0.26312212643668964,0.02454083391432991,7.15007302634428,0.0000024032278796185506,-0.0019021615581030812,-0.0005580159575044913,0.04283817878974848,4.91769220017831,277.6703897883372,0.014055879586001631,2.55779284565311,0.002748214626609756,-0.018356541157419956],[-0.0003394345988348696,0.0013496414796034825,0.0006806706842832319,-0.00003607937717670355,0.0002890320255811631,0.02587388401308336,0.006116765597289106,0.00019024383320774053,-2.2347532345978395e-7,-17.487244188327427,0.1310207317803128,-0.0001415167616159511,0.20480598093615449],[-45.87900766700175,-0.000059039092678613056,1.4929997995415623,-0.015833963047646796,-0.000039174130586011684,-0.009048916260711888,-0.13737051982950976,-0.010245136389648501,-0.0006858624164174124,5.967650935211543e-7,-0.04637269350379545,0.019847033104971414,0.114226106918292],[-0.4600812843785991,0.0008618194612414257,58.74816320925759,-0.000271566155925762,0.062333148641804635,-0.00019814981167434314,-0.0013320293506329688,-0.0004420846665017745,0.014634278848920467,0.0003494483235196928,0.00005617259162848464,-0.9056389669236018,-0.00009552704821730703],[-0.003394844506922797,0.000005499701805571841,0.006541081962832269,0.009933234651372242,0.6163046943951838,-0.00015014196509607232,0.0005586079479372742,0.2027129292576063,0.6016575568229815,-37.37910967339116,0.0029063967926387445,-0.07087604210454303,9.14119494391045],[-0.00003912487376713378,0.0007896242394044364,-0.01636323450611711,-51.62133420995748,0.06513741742198052,-0.0006986074745771621,0.03907674261065966,2.539895323990332,-0.000043937034114893076,-0.0005641962851469779,0.15123531234259685,-1.1394894419566826,-1.1422838151611545],[-0.00982689459076302,-0.12121927434029366,-0.000021940648696436967,-0.012105271765915589,-0.000009135692321804154,-0.000010406417871077466,-0.011672052155542295,0.0001282801499983214,-0.0021238774901795646,-0.00011446337167057316,0.1199881513584351,0.000012273701665713217,-0.000009663420278071261],[-0.0873141686033713,0.12501303003062347,-292.5024169579735,0.07994367474953272,0.1229369502917293,-1.371943960088744,0.004376825750472158,-0.01892875199444652,2.668516504519651,-0.0001700198158719022,0.0025690188942677017,0.00035763079476564485,0.08800023141559607],[0.000007238113783775004,0.00018689619921456477,0.00010256274630817189,0.04506721397296535,-0.0006760239339768239,-0.00021895064365368703,-0.0004115071640330588,0.003941065721198245,0.10027303807687227,-0.0016007891138407064,-0.16155376525095774,-0.0000017410474756674108,-5.590816989993112e-7],[-0.000002379567751305631,-0.004809986772391321,49.850297174442034,0.015163909159682078,0.002153673364039207,0.0012832862505740594,0.00000580209556960269,0.06948884283404955,-0.00004826333747874479,-0.050313597551816976,0.03149965213104321,-0.19020229924610083,-0.9070793475363599]]},"weightsToOutput":{"rows":4,"cols":18,"matrix":[[-5.263532202228346e-10,0.08674957729596455,-39.948370741515895,50.96246383789273,-0.3813851553253763,-0.0009185376107331742,0.00041611369943157274,-0.3492862220698641,0.0018622238068334012,0.10676181591039022,3.6086699748931523,-0.054049802513906606,-0.053415786070324836,-0.46538585322218873,-1.356579067734783,0.011719726109908955,0.00032661142459697713,-0.00005889114969957046],[-0.6947051527103368,5.1078015242454915e-9,-0.006588185910209632,0.056031525353102594,0.02392583526930148,0.000002162284466273054,0.047213601569988425,-0.007916206620376592,0.003222554423109224,-0.014297528709051873,0.0000801769157164712,0.0000016058515784930457,0.0000037322123152793167,-0.2806196203552435,-0.018907219392853142,-0.9170167622176425,-0.0009033056269681486,0.02243246552069915],[0.6685363939001616,0.0000991813938198683,1.3676001341076722,-0.0037223512035607542,-0.01956004939418966,-0.00028750384447728686,-0.0026935318381358046,-0.0011178165601743461,-0.19349947555956978,-0.000004666225380800266,0.009023074309084096,-0.00013529915582163716,0.003922928005661704,15.681759148690578,0.032577216345913027,0.005803689735901791,-3.3160033971703093,-3.091466720782847],[-1.2632624207200338,-0.8516073026054405,0.0006830511365117643,-0.0448711393227762,-0.04910249694277532,-0.00019419005312399095,-0.00014152248836000637,0.0007511069164102457,0.0005193705676272745,0.2946657887693499,-1.2065177291084002,0.04121290076859684,-0.3872108692583158,-0.011211417834629566,-0.08104159145570469,-10.226332285110397,0.004337701422080567,6.002718580661118]]},"biasToHidden":{"rows":18,"cols":1,"matrix":[[-1.4865495266603599],[-1.1966856714677876],[-1.0035266313382145],[0.005334455535590008],[1.1698481964028546],[-0.3440835139573728],[8.019732308642655e-8],[0.015641991183791042],[-0.0020503586691444603],[-0.046981647006656524],[-0.00013007758375064717],[0.32421720843093005],[-0.06766100046080376],[0.0009815504086687112],[2.22833435298409],[0.0004747992325777878],[0.005755366407119623],[1.0808594442514181]]},"biasToOutput":{"rows":4,"cols":1,"matrix":[[0.00015898719253797358],[0.02015456006336289],[0.004098608675956561],[-3.666126359246527]]},"learningRate":0.1},"instructions":[],"body":[{"x":800,"y":400,"size":25,"instructions":[[800,400,"D"]],"speedX":25,"speedY":0,"index1":32,"index2":16}],"size":25,"collide":true,"points":0,"apple":{"size":25,"x":75,"y":225,"index1":3,"index2":9},"traveledDistance":19,"moves":81,"map":{"rows":32,"cells":[[-10,-10,-10,-10,-10,-10,-10,-10,-10,-10,-10,-10,-10,-10,-10,-10,-10,-10,-10,-10,-10,-10,-10,-10,-10,-10,-10,-10,-10,-10,-10,-10],[-10,1,1,1,1,1,1,1,1,1,1,1,1,1,1,1,1,1,1,1,1,1,1,1,1,1,1,1,1,1,1,-10],[-10,1,1,1,1,1,1,1,5,5,5,1,1,1,1,1,1,1,1,1,1,1,1,1,1,1,1,1,1,1,1,-10],[-10,1,1,1,1,1,1,1,5,10,5,1,1,1,1,1,1,1,1,1,1,1,1,1,1,1,1,1,1,1,1,-10],[-10,1,1,1,1,1,1,1,5,5,5,1,1,1,1,1,1,1,1,1,1,1,1,1,1,1,1,1,1,1,1,-10],[-10,1,1,1,1,1,1,1,1,1,1,1,1,1,1,1,1,1,1,1,1,1,1,1,1,1,1,1,1,1,1,-10],[-10,1,1,1,1,1,1,1,1,1,1,1,1,1,1,1,1,1,1,1,1,1,1,1,1,1,1,1,1,1,1,-10],[-10,1,1,1,1,1,1,1,1,1,1,1,1,1,1,1,1,1,1,1,1,1,1,1,1,1,1,1,1,1,1,-10],[-10,1,1,1,1,1,1,1,1,1,1,1,1,1,1,1,1,1,1,1,1,1,1,1,1,1,1,1,1,1,1,-10],[-10,1,1,1,1,1,1,1,1,1,1,1,1,1,1,1,1,1,1,1,1,1,1,1,1,1,1,1,1,1,1,-10],[-10,1,1,1,1,1,1,1,1,1,1,1,1,1,1,1,1,1,1,1,1,1,1,1,1,1,1,1,1,1,1,-10],[-10,1,1,1,1,1,1,1,1,1,1,1,1,1,1,1,1,1,1,1,1,1,1,1,1,1,1,1,1,1,1,-10],[-10,1,1,1,1,1,1,1,1,1,1,1,1,1,1,1,1,1,1,1,1,1,1,1,1,1,1,1,1,1,1,-10],[-10,1,1,1,1,1,1,1,1,1,1,1,1,1,1,1,1,1,1,1,1,1,1,1,1,1,1,1,1,1,1,-10],[-10,1,1,1,1,1,1,1,1,1,1,1,1,1,1,1,1,1,1,1,1,1,1,1,1,1,1,1,1,1,1,-10],[-10,1,1,1,1,1,1,1,1,1,1,1,1,1,1,1,1,1,1,1,1,1,1,1,1,1,1,1,1,1,1,-10],[-10,1,1,1,1,1,1,1,1,1,1,1,1,1,1,1,1,1,1,1,1,1,1,1,1,1,1,1,1,1,1,-10],[-10,1,1,1,1,1,1,1,1,1,1,1,1,1,1,1,1,1,1,1,1,1,1,1,1,1,1,1,1,1,1,-10],[-10,1,1,1,1,1,1,1,1,1,1,1,1,1,1,1,1,1,1,1,1,1,1,1,1,1,1,1,1,1,1,-10],[-10,1,1,1,1,1,1,1,1,1,1,1,1,1,1,1,1,1,1,1,1,1,1,1,1,1,1,1,1,1,1,-10],[-10,1,1,1,1,1,1,1,1,1,1,1,1,1,1,1,1,1,1,1,1,1,1,1,1,1,1,1,1,1,1,-10],[-10,1,1,1,1,1,1,1,1,1,1,1,1,1,1,1,1,1,1,1,1,1,1,1,1,1,1,1,1,1,1,-10],[-10,1,1,1,1,1,1,1,1,1,1,1,1,1,1,1,1,1,1,1,1,1,1,1,1,1,1,1,1,1,1,-10],[-10,1,1,1,1,1,1,1,1,1,1,1,1,1,1,1,1,1,1,1,1,1,1,1,1,1,1,1,1,1,1,-10],[-10,1,1,1,1,1,1,1,1,1,1,1,1,1,1,1,1,1,1,1,1,1,1,1,1,1,1,1,1,1,1,-10],[-10,1,1,1,1,1,1,1,1,1,1,1,1,1,1,1,1,1,1,1,1,1,1,1,1,1,1,1,1,1,1,-10],[-10,1,1,1,1,1,1,1,1,1,1,1,1,1,1,1,1,1,1,1,1,1,1,1,1,1,1,1,1,1,1,-10],[-10,1,1,1,1,1,1,1,1,1,1,1,1,1,1,1,1,1,1,1,1,1,1,1,1,1,1,1,1,1,1,-10],[-10,1,1,1,1,1,1,1,1,1,1,1,1,1,1,1,1,1,1,1,1,1,1,1,1,1,1,1,1,1,1,-10],[-10,1,1,1,1,1,1,1,1,1,1,1,1,1,1,1,1,1,1,1,1,1,1,1,1,1,1,1,1,1,1,-10],[-10,1,1,1,1,1,1,1,1,1,1,1,1,1,1,1,1,1,1,1,1,1,1,1,1,1,1,1,1,1,1,-10],[-10,-10,-10,-10,-10,-10,-10,-10,-10,-10,-10,-10,-10,-10,-10,-10,-10,-10,-10,-10,-10,-10,-10,-10,-10,-10,-10,-10,-10,-10,-10,-10]]}},{"fitness":361,"brain":{"input_num":13,"hidden_num":18,"output_num":4,"hiddenLayers_num":1,"AdditionalHiddenLayers":[],"weightsToHidden":{"rows":18,"cols":13,"matrix":[[-0.0009404980267082891,-0.00010057497631371724,12.642713028336749,0.210607505649765,-0.2730004146117997,-0.5974195996429905,12.485828664795081,-0.0003208721596968861,4.226383106881173,0.00039429591037319465,-0.0001754857606215024,-4.530905544379354,0.061215254246425],[1.3776719646027347,0.0009469375327064465,-7.095331828767209,0.12293227850408497,0.00009683659792083889,-0.8163299792221823,11.783388423824768,-0.000006080867234694018,0.0003384895268846641,0.1086136601630687,1.064774575859149,0.00014306253831991055,0.7362648856803007],[-0.5582737366333864,-1.34524066105601,-0.003209423403034549,-0.000034227033369795855,-0.000010177317896247338,-19.820686971536883,10.58775158704215,0.04188989503791417,0.00008867074438161374,-1.644367078926087,0.00006149434958835232,-0.015509396461773031,1.616669639688753],[-3.3479096640689425,0.00013021763240934436,-0.050919367934127886,-59.92905429560862,0.002564563038592433,0.1067489177827094,0.023394634658676233,0.000001239500453339912,-1.9194824275987372,0.04018111021656046,0.001894233356970836,-4.213561976933316,0.0000013089546343371452],[0.08366684277730678,-0.0035004922363655604,-0.0956987810049396,-0.42786015479764894,-0.007598150132770367,0.6500030986527192,0.00016262232077873494,0.0006726288961466884,-7.907319925434367e-12,-0.012252061900274811,0.02787182250310754,-52.65591559678444,0.012660718554527873],[-9.976473991074709,-0.06800478140153665,0.002601658903851566,-0.05393742929109078,0.11567685677377061,0.002287816358751733,-0.033221824085301714,13.388382189057054,0.000038028857291558166,-4.987183638776892e-7,2.5142651540437226,0.07093150629715557,-0.392846417248525],[-22.055284877541382,-0.000001976210790553614,0.000016797858512614798,-7.028836863660426,-0.11571447672398914,-0.000037695910657542136,-0.01316933697966794,0.03915570763822062,-0.000029954771769266463,-1.3103445630798607,-0.0000021748500176238846,1.0980499216077049,0.00022492969678113885],[-0.3159220756308344,-0.16770851500652156,-5.395634287006904,0.024822111094506716,0.023871962181985333,0.002343379958420291,0.1582887133910545,0.018225104125655804,-0.02730555923204747,0.2571722844566501,-4.8463803331150554,-1.8401480015711267,0.21827977896592782],[0.26312212643668964,0.0674056319724989,7.15007302634428,0.000003932006911197681,-0.0019021615581030812,-0.0005580159575044913,0.023737583539003546,4.91769220017831,277.6703897883372,0.014055879586001631,2.55779284565311,0.002748214626609756,-0.009587247492081745],[-0.0003394345988348696,0.0013496414796034825,0.0006806706842832319,-0.00004851130073093485,0.0002890320255811631,0.02353476559074423,0.0033909947665272124,0.00019024383320774053,-4.0368910573152467e-7,-17.487244188327427,0.1310207317803128,-0.0001415167616159511,0.20480598093615449],[-45.87900766700175,-0.000029355204120153566,1.4929997995415623,-0.015833963047646796,-0.000039174130586011684,-0.013245679096572918,-0.6885226387898412,-0.010245136389648501,-0.0006858624164174124,0.0000010754136111259731,-0.04637269350379545,0.019847033104971414,0.114226106918292],[0.045119485818797975,0.0008618194612414257,58.74816320925759,-0.000271566155925762,0.062333148641804635,-0.00037979210406882154,-0.0013320293506329688,-0.0004420846665017745,0.017260560522207067,0.0003494483235196928,0.00005617259162848464,-0.9056389669236018,-0.00009552704821730703],[-0.003394844506922797,0.000005499701805571841,0.006541081962832269,0.009933234651372242,0.6163046943951838,-0.00015014196509607232,0.0005586079479372742,0.2027129292576063,0.6016575568229815,-37.37910967339116,0.0029063967926387445,-0.07087604210454303,9.14119494391045],[-0.00003912487376713378,0.0007896242394044364,-0.01636323450611711,-76.99074182850052,0.02528417540297195,-0.0006986074745771621,0.03907674261065966,2.7167198990504446,-0.000043937034114893076,-0.0005641962851469779,1.0245540553457582,-1.1394894419566826,-1.1422838151611545],[-0.00982689459076302,-0.04683770280075015,-0.000021940648696436967,-0.012105271765915589,-0.000009135692321804154,-0.000010406417871077466,-0.009287232762056338,-0.000021093885442818014,-0.011910046294110117,0.00005474806860732487,0.1199881513584351,0.000012273701665713217,-0.000009663420278071261],[-0.19685192814750324,0.12501303003062347,-292.5024169579735,-0.002101176543820312,0.15022929675618754,-1.371943960088744,0.012174589714076364,-0.01892875199444652,2.668516504519651,-0.0001700198158719022,0.0025690188942677017,0.00035763079476564485,0.08800023141559607],[0.000007238113783775004,0.0005130274616496422,0.00010256274630817189,0.03551117800243732,-0.00033385147746699175,-0.00021895064365368703,-0.0004115071640330588,0.003941065721198245,0.15724068753852263,-0.0016007891138407064,-0.16155376525095774,-0.0000017410474756674108,-5.590816989993112e-7],[-9.309714984116979e-7,-0.004809986772391321,49.850297174442034,0.03439171290380328,0.002153673364039207,0.0012832862505740594,9.80583351018798e-7,0.03558028768833548,-0.00004826333747874479,-0.1910460517684938,0.03149965213104321,-0.09967676629275754,-0.8404386032484682]]},"weightsToOutput":{"rows":4,"cols":18,"matrix":[[-5.263532202228346e-10,0.08674957729596455,-39.948370741515895,50.96246383789273,-0.3813851553253763,-0.0009185376107331742,0.0003239509371998843,-0.3492862220698641,0.002101544816364306,-0.03530645906160208,3.6086699748931523,-0.054049802513906606,-0.053415786070324836,-0.46538585322218873,-1.356579067734783,-0.006479052079043193,-0.00030013472076766785,-0.00005889114969957046],[-0.6947051527103368,2.8436225226051257e-9,-0.006588185910209632,0.056031525353102594,0.049799090042041805,0.000002162284466273054,0.035767154945978465,-0.007916206620376592,0.003222554423109224,-0.014297528709051873,0.0002539270939124505,0.0000015219926112150028,0.0000037322123152793167,-0.2806196203552435,-0.018907219392853142,-0.9170167622176425,-0.009756378185135339,0.02243246552069915],[0.6685363939001616,0.0000991813938198683,1.3676001341076722,-0.005865048255217142,-0.01956004939418966,-0.00028750384447728686,-0.0018660519245004407,-0.0011178165601743461,-0.07854657984635918,-0.000004666225380800266,0.009023074309084096,-0.00013529915582163716,0.003922928005661704,15.681759148690578,0.032577216345913027,0.005803689735901791,-3.3160033971703093,-3.091466720782847],[-1.2632624207200338,-0.8516073026054405,0.0010699205228902676,-0.03210105187013492,-0.025341285508042554,-0.00015482644314417129,0.00008324216150620769,0.0007511069164102457,0.0005193705676272745,0.2946657887693499,-1.207843045397872,0.025334519726091145,-0.3872108692583158,-0.020958274228762595,-0.09175553372647952,-10.226332285110397,0.004607646787276922,6.002718580661118]]},"biasToHidden":{"rows":18,"cols":1,"matrix":[[-1.4865495266603599],[-0.6559479172476931],[-1.0035266313382145],[0.005334455535590008],[1.1698481964028546],[-0.07262180624150806],[8.019732308642655e-8],[0.012021068673927321],[-0.0008671268436378637],[-0.046981647006656524],[-0.00013007758375064717],[0.32421720843093005],[-0.06766100046080376],[0.0009815504086687112],[2.22833435298409],[0.0004747992325777878],[0.005755366407119623],[1.0808594442514181]]},"biasToOutput":{"rows":4,"cols":1,"matrix":[[0.000002127688765291729],[0.033983340051193765],[0.004098608675956561],[-3.666126359246527]]},"learningRate":0.1},"instructions":[],"body":[{"x":800,"y":400,"size":25,"instructions":[[800,400,"D"]],"speedX":25,"speedY":0,"index1":32,"index2":16}],"size":25,"collide":true,"points":0,"apple":{"size":25,"x":525,"y":750,"index1":21,"index2":30},"traveledDistance":19,"moves":81,"map":{"rows":32,"cells":[[-10,-10,-10,-10,-10,-10,-10,-10,-10,-10,-10,-10,-10,-10,-10,-10,-10,-10,-10,-10,-10,-10,-10,-10,-10,-10,-10,-10,-10,-10,-10,-10],[-10,1,1,1,1,1,1,1,1,1,1,1,1,1,1,1,1,1,1,1,1,1,1,1,1,1,1,1,1,1,1,-10],[-10,1,1,1,1,1,1,1,1,1,1,1,1,1,1,1,1,1,1,1,1,1,1,1,1,1,1,1,1,1,1,-10],[-10,1,1,1,1,1,1,1,1,1,1,1,1,1,1,1,1,1,1,1,1,1,1,1,1,1,1,1,1,1,1,-10],[-10,1,1,1,1,1,1,1,1,1,1,1,1,1,1,1,1,1,1,1,1,1,1,1,1,1,1,1,1,1,1,-10],[-10,1,1,1,1,1,1,1,1,1,1,1,1,1,1,1,1,1,1,1,1,1,1,1,1,1,1,1,1,1,1,-10],[-10,1,1,1,1,1,1,1,1,1,1,1,1,1,1,1,1,1,1,1,1,1,1,1,1,1,1,1,1,1,1,-10],[-10,1,1,1,1,1,1,1,1,1,1,1,1,1,1,1,1,1,1,1,1,1,1,1,1,1,1,1,1,1,1,-10],[-10,1,1,1,1,1,1,1,1,1,1,1,1,1,1,1,1,1,1,1,1,1,1,1,1,1,1,1,1,1,1,-10],[-10,1,1,1,1,1,1,1,1,1,1,1,1,1,1,1,1,1,1,1,1,1,1,1,1,1,1,1,1,1,1,-10],[-10,1,1,1,1,1,1,1,1,1,1,1,1,1,1,1,1,1,1,1,1,1,1,1,1,1,1,1,1,1,1,-10],[-10,1,1,1,1,1,1,1,1,1,1,1,1,1,1,1,1,1,1,1,1,1,1,1,1,1,1,1,1,1,1,-10],[-10,1,1,1,1,1,1,1,1,1,1,1,1,1,1,1,1,1,1,1,1,1,1,1,1,1,1,1,1,1,1,-10],[-10,1,1,1,1,1,1,1,1,1,1,1,1,1,1,1,1,1,1,1,1,1,1,1,1,1,1,1,1,1,1,-10],[-10,1,1,1,1,1,1,1,1,1,1,1,1,1,1,1,1,1,1,1,1,1,1,1,1,1,1,1,1,1,1,-10],[-10,1,1,1,1,1,1,1,1,1,1,1,1,1,1,1,1,1,1,1,1,1,1,1,1,1,1,1,1,1,1,-10],[-10,1,1,1,1,1,1,1,1,1,1,1,1,1,1,1,1,1,1,1,1,1,1,1,1,1,1,1,1,1,1,-10],[-10,1,1,1,1,1,1,1,1,1,1,1,1,1,1,1,1,1,1,1,1,1,1,1,1,1,1,1,1,1,1,-10],[-10,1,1,1,1,1,1,1,1,1,1,1,1,1,1,1,1,1,1,1,1,1,1,1,1,1,1,1,1,1,1,-10],[-10,1,1,1,1,1,1,1,1,1,1,1,1,1,1,1,1,1,1,1,1,1,1,1,1,1,1,1,1,1,1,-10],[-10,1,1,1,1,1,1,1,1,1,1,1,1,1,1,1,1,1,1,1,1,1,1,1,1,1,1,1,1,5,5,5],[-10,1,1,1,1,1,1,1,1,1,1,1,1,1,1,1,1,1,1,1,1,1,1,1,1,1,1,1,1,5,10,5],[-10,1,1,1,1,1,1,1,1,1,1,1,1,1,1,1,1,1,1,1,1,1,1,1,1,1,1,1,1,5,5,5],[-10,1,1,1,1,1,1,1,1,1,1,1,1,1,1,1,1,1,1,1,1,1,1,1,1,1,1,1,1,1,1,-10],[-10,1,1,1,1,1,1,1,1,1,1,1,1,1,1,1,1,1,1,1,1,1,1,1,1,1,1,1,1,1,1,-10],[-10,1,1,1,1,1,1,1,1,1,1,1,1,1,1,1,1,1,1,1,1,1,1,1,1,1,1,1,1,1,1,-10],[-10,1,1,1,1,1,1,1,1,1,1,1,1,1,1,1,1,1,1,1,1,1,1,1,1,1,1,1,1,1,1,-10],[-10,1,1,1,1,1,1,1,1,1,1,1,1,1,1,1,1,1,1,1,1,1,1,1,1,1,1,1,1,1,1,-10],[-10,1,1,1,1,1,1,1,1,1,1,1,1,1,1,1,1,1,1,1,1,1,1,1,1,1,1,1,1,1,1,-10],[-10,1,1,1,1,1,1,1,1,1,1,1,1,1,1,1,1,1,1,1,1,1,1,1,1,1,1,1,1,1,1,-10],[-10,1,1,1,1,1,1,1,1,1,1,1,1,1,1,1,1,1,1,1,1,1,1,1,1,1,1,1,1,1,1,-10],[-10,-10,-10,-10,-10,-10,-10,-10,-10,-10,-10,-10,-10,-10,-10,-10,-10,-10,-10,-10,-10,-10,-10,-10,-10,-10,-10,-10,-10,-10,-10,-10]]}},{"fitness":676,"brain":{"input_num":13,"hidden_num":18,"output_num":4,"hiddenLayers_num":1,"AdditionalHiddenLayers":[],"weightsToHidden":{"rows":18,"cols":13,"matrix":[[-0.011869289680310981,-0.000125668472600001,9.05065572016327,0.19932121609847425,-0.554472543903876,-1.0407560007739316,12.485828664795081,0.0000175739932522666,4.226383106881173,0.0003297877221609359,-0.000057897663346680284,0.08037611527901403,0.05371754204839026],[1.3776719646027347,0.0009469375327064465,-7.095331828767209,0.12293227850408497,0.00009683659792083889,-1.4555250590022988,22.03594924362463,-0.000006080867234694018,0.0003384895268846641,0.1086136601630687,1.064774575859149,0.00014306253831991055,0.7362648856803007],[-0.5582737366333864,-0.6054352467184967,-0.0010491146814825567,-0.000034227033369795855,-0.000010177317896247338,70.33865671715506,15.850835895396731,0.04188989503791417,0.00008867074438161374,-1.644367078926087,-0.0005337968772988337,-0.015509396461773031,1.616669639688753],[-3.3479096640689425,0.00013021763240934436,-0.050919367934127886,-22.449996055274763,0.002564563038592433,0.1067489177827094,0.023394634658676233,0.000001239500453339912,-1.9194824275987372,0.04018111021656046,0.001894233356970836,-4.213561976933316,0.0000013089546343371452],[0.08366684277730678,-0.0016537127984573986,-0.0956987810049396,-0.42786015479764894,-0.007598150132770367,0.6500030986527192,0.00016262232077873494,0.0006726288961466884,-2.3642342693847324e-11,0.020028829752150992,-0.1880984266590007,-52.65591559678444,0.012660718554527873],[-9.976473991074709,-0.06800478140153665,0.002601658903851566,-0.05393742929109078,0.11567685677377061,0.002287816358751733,-0.033221824085301714,13.388382189057054,0.000038028857291558166,-4.987183638776892e-7,2.5142651540437226,0.011795847857496327,-0.392846417248525],[-11.886047660962737,-0.000001976210790553614,0.000016797858512614798,-7.028836863660426,-0.11571447672398914,-0.000037695910657542136,-0.01316933697966794,0.04884744998574819,-0.000007573619390685139,-1.3103445630798607,-0.0000021748500176238846,1.0980499216077049,0.0009683128666159399],[-0.2082025357825242,-0.16770851500652156,-5.395634287006904,-0.023106163927780695,0.023871962181985333,0.002343379958420291,0.2668088942389862,0.018225104125655804,-0.02730555923204747,0.2571722844566501,-2.1578398067268005,-0.7831953454877834,0.428302417853461],[0.26312212643668964,0.02454083391432991,7.15007302634428,0.000003932006911197681,-0.0019021615581030812,-0.0005580159575044913,0.04283817878974848,4.91769220017831,277.6703897883372,0.014055879586001631,2.55779284565311,0.002748214626609756,-0.009587247492081745],[-0.0003394345988348696,0.0013496414796034825,0.0006806706842832319,-0.00003607937717670355,0.0002890320255811631,0.017647089602466432,0.0033909947665272124,0.0004911775889574666,-2.2347532345978395e-7,-17.487244188327427,0.1310207317803128,-0.0001415167616159511,0.20480598093615449],[-45.87900766700175,-0.000029355204120153566,1.4929997995415623,-0.0021818140255472074,-0.000039174130586011684,-0.009048916260711888,-0.13737051982950976,-0.010245136389648501,-0.0006858624164174124,5.967650935211543e-7,-0.04637269350379545,0.019847033104971414,0.114226106918292],[-0.4600812843785991,0.0008618194612414257,58.74816320925759,-0.000271566155925762,0.062333148641804635,-0.00019814981167434314,-0.000021863742882082856,-0.0004420846665017745,0.020664724076402678,0.0003494483235196928,0.00005617259162848464,-0.9056389669236018,-0.00009552704821730703],[-0.005568312825531379,0.000005499701805571841,-0.0003338457993071795,0.009933234651372242,0.2120769764659405,-0.00015014196509607232,0.0005586079479372742,0.2027129292576063,0.6016575568229815,-37.37910967339116,0.0029063967926387445,-0.07087604210454303,9.14119494391045],[-0.00003912487376713378,0.0007896242394044364,-0.01636323450611711,-51.62133420995748,0.06513741742198052,-0.0006986074745771621,0.03907674261065966,2.539895323990332,-0.000043937034114893076,-0.0005641962851469779,1.0245540553457582,-1.1394894419566826,-1.1422838151611545],[-0.00982689459076302,-0.12121927434029366,-0.000021940648696436967,-0.012105271765915589,-0.000009135692321804154,-0.000010406417871077466,-0.013962307315458613,-0.0003317430167774292,-0.011910046294110117,-0.00011446337167057316,0.1199881513584351,0.000012273701665713217,-0.000006381535150248607],[-0.0873141686033713,0.12501303003062347,43.13198352557145,0.16093131096695318,0.1229369502917293,-1.371943960088744,0.004376825750472158,-0.01892875199444652,2.668516504519651,-0.0001700198158719022,0.0025690188942677017,0.00035763079476564485,0.08800023141559607],[0.000013290339934905969,0.00018689619921456477,0.00010256274630817189,0.0026087601947609854,-0.00033385147746699175,-0.00011895951998198664,-0.0004115071640330588,0.003941065721198245,0.15724068753852263,-0.0016007891138407064,-0.16155376525095774,-0.0000017410474756674108,-5.590816989993112e-7],[-9.309714984116979e-7,-0.004809986772391321,49.850297174442034,0.015163909159682078,0.002153673364039207,0.0012832862505740594,0.00000580209556960269,0.06948884283404955,-0.00004826333747874479,-0.1910460517684938,0.03149965213104321,-0.10507139004270268,-2.2027362920905684]]},"weightsToOutput":{"rows":4,"cols":18,"matrix":[[-5.263532202228346e-10,0.1865343993988049,-39.948370741515895,50.96246383789273,-0.3813851553253763,-0.0009185376107331742,0.0003239509371998843,-0.3492862220698641,0.002101544816364306,0.10676181591039022,3.6086699748931523,-0.054049802513906606,-0.053415786070324836,-0.46538585322218873,-1.356579067734783,0.011719726109908955,0.00032661142459697713,-0.00005889114969957046],[-0.6947051527103368,1.1843671532874563e-8,-0.006588185910209632,0.056031525353102594,0.028691985137651213,0.0000022399436174872947,0.047213601569988425,-0.007916206620376592,0.003222554423109224,-0.0060843465237418615,-0.000006834722258973507,0.0000015219926112150028,0.0000037322123152793167,-0.2806196203552435,-0.018907219392853142,-0.9170167622176425,-0.003978407275641013,0.02243246552069915],[0.009714807284243746,0.0000991813938198683,1.3676001341076722,-0.0037223512035607542,-0.01956004939418966,-0.00024378229140850166,-0.0026935318381358046,-0.0017425554182290413,-0.07854657984635918,-0.000004666225380800266,0.009023074309084096,-0.00013529915582163716,0.010597441933345378,11.082785443853867,0.032577216345913027,0.005803689735901791,1.4280219644904315,-3.091466720782847],[-1.2632624207200338,-0.8516073026054405,0.0006830511365117643,-0.0448711393227762,-0.0224962971946263,-0.00019419005312399095,-0.00014152248836000637,0.0010608096859557516,0.0005193705676272745,0.2946657887693499,-1.2065177291084002,0.025334519726091145,-0.3872108692583158,-0.011211417834629566,-0.08104159145570469,-10.226332285110397,0.004607646787276922,6.002718580661118]]},"biasToHidden":{"rows":18,"cols":1,"matrix":[[-1.4865495266603599],[-0.6559479172476931],[-1.0035266313382145],[0.005334455535590008],[1.1698481964028546],[-0.07262180624150806],[8.019732308642655e-8],[0.015641991183791042],[-0.000695447300161745],[-0.046981647006656524],[-0.00013007758375064717],[0.32421720843093005],[-0.06766100046080376],[0.0009815504086687112],[2.22833435298409],[0.0004747992325777878],[0.005755366407119623],[1.0808594442514181]]},"biasToOutput":{"rows":4,"cols":1,"matrix":[[-0.000011720296461549489],[0.02015456006336289],[0.004098608675956561],[-3.666126359246527]]},"learningRate":0.1},"instructions":[],"body":[{"x":175,"y":800,"size":25,"instructions":[[175,800,"L"]],"speedX":0,"speedY":25,"index1":7,"index2":32}],"size":25,"collide":true,"points":0,"apple":{"size":25,"x":550,"y":525,"index1":22,"index2":21},"traveledDistance":26,"moves":74,"map":{"rows":32,"cells":[[-10,-10,-10,-10,-10,-10,-10,-10,-10,-10,-10,-10,-10,-10,-10,-10,-10,-10,-10,-10,-10,-10,-10,-10,-10,-10,-10,-10,-10,-10,-10,-10],[-10,1,1,1,1,1,1,1,1,1,1,1,1,1,1,1,1,1,1,1,1,1,1,1,1,1,1,1,1,1,1,-10],[-10,1,1,1,1,1,1,1,1,1,1,1,1,1,1,1,1,1,1,1,1,1,1,1,1,1,1,1,1,1,1,-10],[-10,1,1,1,1,1,1,1,1,1,1,1,1,1,1,1,1,1,1,1,1,1,1,1,1,1,1,1,1,1,1,-10],[-10,1,1,1,1,1,1,1,1,1,1,1,1,1,1,1,1,1,1,1,1,1,1,1,1,1,1,1,1,1,1,-10],[-10,1,1,1,1,1,1,1,1,1,1,1,1,1,1,1,1,1,1,1,1,1,1,1,1,1,1,1,1,1,1,-10],[-10,1,1,1,1,1,1,1,1,1,1,1,1,1,1,1,1,1,1,1,1,1,1,1,1,1,1,1,1,1,1,-10],[-10,1,1,1,1,1,1,1,1,1,1,1,1,1,1,1,1,1,1,1,1,1,1,1,1,1,1,1,1,1,1,-10,-10],[-10,1,1,1,1,1,1,1,1,1,1,1,1,1,1,1,1,1,1,1,1,1,1,1,1,1,1,1,1,1,1,-10],[-10,1,1,1,1,1,1,1,1,1,1,1,1,1,1,1,1,1,1,1,1,1,1,1,1,1,1,1,1,1,1,-10],[-10,1,1,1,1,1,1,1,1,1,1,1,1,1,1,1,1,1,1,1,1,1,1,1,1,1,1,1,1,1,1,-10],[-10,1,1,1,1,1,1,1,1,1,1,1,1,1,1,1,1,1,1,1,1,1,1,1,1,1,1,1,1,1,1,-10],[-10,1,1,1,1,1,1,1,1,1,1,1,1,1,1,1,1,1,1,1,1,1,1,1,1,1,1,1,1,1,1,-10],[-10,1,1,1,1,1,1,1,1,1,1,1,1,1,1,1,1,1,1,1,1,1,1,1,1,1,1,1,1,1,1,-10],[-10,1,1,1,1,1,1,1,1,1,1,1,1,1,1,1,1,1,1,1,1,1,1,1,1,1,1,1,1,1,1,-10],[-10,1,1,1,1,1,1,1,1,1,1,1,1,1,1,1,1,1,1,1,1,1,1,1,1,1,1,1,1,1,1,-10],[-10,1,1,1,1,1,1,1,1,1,1,1,1,1,1,1,1,1,1,1,1,1,1,1,1,1,1,1,1,1,1,-10],[-10,1,1,1,1,1,1,1,1,1,1,1,1,1,1,1,1,1,1,1,1,1,1,1,1,1,1,1,1,1,1,-10],[-10,1,1,1,1,1,1,1,1,1,1,1,1,1,1,1,1,1,1,1,1,1,1,1,1,1,1,1,1,1,1,-10],[-10,1,1,1,1,1,1,1,1,1,1,1,1,1,1,1,1,1,1,1,1,1,1,1,1,1,1,1,1,1,1,-10],[-10,1,1,1,1,1,1,1,1,1,1,1,1,1,1,1,1,1,1,1,1,1,1,1,1,1,1,1,1,1,1,-10],[-10,1,1,1,1,1,1,1,1,1,1,1,1,1,1,1,1,1,1,1,5,5,5,1,1,1,1,1,1,1,1,-10],[-10,1,1,1,1,1,1,1,1,1,1,1,1,1,1,1,1,1,1,1,5,10,5,1,1,1,1,1,1,1,1,-10],[-10,1,1,1,1,1,1,1,1,1,1,1,1,1,1,1,1,1,1,1,5,5,5,1,1,1,1,1,1,1,1,-10],[-10,1,1,1,1,1,1,1,1,1,1,1,1,1,1,1,1,1,1,1,1,1,1,1,1,1,1,1,1,1,1,-10],[-10,1,1,1,1,1,1,1,1,1,1,1,1,1,1,1,1,1,1,1,1,1,1,1,1,1,1,1,1,1,1,-10],[-10,1,1,1,1,1,1,1,1,1,1,1,1,1,1,1,1,1,1,1,1,1,1,1,1,1,1,1,1,1,1,-10],[-10,1,1,1,1,1,1,1,1,1,1,1,1,1,1,1,1,1,1,1,1,1,1,1,1,1,1,1,1,1,1,-10],[-10,1,1,